=== Run information ===

Scheme:       weka.classifiers.meta.AdaBoostM1 -P 100 -S 1 -I 10 -W weka.classifiers.trees.J48 -- -C 0.25 -M 2
Relation:     Wavelet_features_performance_All-weka.filters.supervised.instance.SMOTE-C1-K10-P1000.0-S1-weka.filters.supervised.instance.SMOTE-C2-K20-P180.0-S1-weka.filters.unsupervised.attribute.Remove-R1-4,6-12,14-26,28-39,41,43-44,46-58,60-86,88,90-91,93-100,102-104,106-107,109-132,134-143,145-150,152-154,156-172,174-180,182-185,187-208,210-215,217-227,229-243,245-263,265-274,276-298,300-304,306-308,310-324,326,328-360
Instances:    1916
Attributes:   32
              m_d1n
              m_d1d1r
              k_d1d2r
              std_d2r
              v_d2n
              m_d2a
              k_d2d1a
              k_d3d1r
              m_d3d1n
              std_d3d1n
              m_d3d2n
              m_d3d2a
              std_d3d2a
              m_d4d2r
              std_d4d2a
              k_d5n
              k_d5a
              m_d5d2n
              m_d6r
              v_d6n
              m_d6d2n
              std_d6d2a
              std_d7a
              std_d7d2r
              std_d8a
              k_d8d1a
              k_d9a
              m_d9d1n
              m_d9d1a
              m_d10r
              k_d10r
              performance
Test mode:    10-fold cross-validation

=== Classifier model (full training set) ===

AdaBoostM1: Base classifiers and their weights: 

J48 pruned tree
------------------

std_d3d1n <= 0.3682
|   k_d2d1a <= 225.778371
|   |   m_d3d1n <= -0.001308
|   |   |   k_d8d1a <= 5.264213: Alto (16.0)
|   |   |   k_d8d1a > 5.264213
|   |   |   |   m_d6d2n <= 0.002374
|   |   |   |   |   m_d3d1n <= -0.001611: Medio (4.0/1.0)
|   |   |   |   |   m_d3d1n > -0.001611: Alto (7.0)
|   |   |   |   m_d6d2n > 0.002374: Medio (8.0)
|   |   m_d3d1n > -0.001308
|   |   |   m_d6d2n <= 0.0131
|   |   |   |   k_d5a <= 5.991481
|   |   |   |   |   m_d4d2r <= -0.001107
|   |   |   |   |   |   m_d3d1n <= 0.000951
|   |   |   |   |   |   |   m_d9d1a <= 1.294273
|   |   |   |   |   |   |   |   v_d6n <= 0.185927
|   |   |   |   |   |   |   |   |   m_d3d2n <= -0.000501: Alto (6.0)
|   |   |   |   |   |   |   |   |   m_d3d2n > -0.000501
|   |   |   |   |   |   |   |   |   |   m_d9d1n <= 0.002484
|   |   |   |   |   |   |   |   |   |   |   m_d2a <= 0.00168: Medio (7.0/1.0)
|   |   |   |   |   |   |   |   |   |   |   m_d2a > 0.00168
|   |   |   |   |   |   |   |   |   |   |   |   std_d4d2a <= 0.559778: Medio (2.0)
|   |   |   |   |   |   |   |   |   |   |   |   std_d4d2a > 0.559778: Alto (21.0/1.0)
|   |   |   |   |   |   |   |   |   |   m_d9d1n > 0.002484
|   |   |   |   |   |   |   |   |   |   |   m_d10r <= -0.002053: Medio (2.0)
|   |   |   |   |   |   |   |   |   |   |   m_d10r > -0.002053
|   |   |   |   |   |   |   |   |   |   |   |   std_d3d2a <= 0.071838: Alto (4.0)
|   |   |   |   |   |   |   |   |   |   |   |   std_d3d2a > 0.071838
|   |   |   |   |   |   |   |   |   |   |   |   |   m_d1d1r <= -0.000025
|   |   |   |   |   |   |   |   |   |   |   |   |   |   std_d4d2a <= 0.719825
|   |   |   |   |   |   |   |   |   |   |   |   |   |   |   k_d2d1a <= 16.14596
|   |   |   |   |   |   |   |   |   |   |   |   |   |   |   |   std_d6d2a <= 1.557743: Medio (14.0/1.0)
|   |   |   |   |   |   |   |   |   |   |   |   |   |   |   |   std_d6d2a > 1.557743: Alto (2.0)
|   |   |   |   |   |   |   |   |   |   |   |   |   |   |   k_d2d1a > 16.14596
|   |   |   |   |   |   |   |   |   |   |   |   |   |   |   |   m_d1n <= 0.000026: Alto (9.0/1.0)
|   |   |   |   |   |   |   |   |   |   |   |   |   |   |   |   m_d1n > 0.000026: Medio (2.0)
|   |   |   |   |   |   |   |   |   |   |   |   |   |   std_d4d2a > 0.719825: Medio (9.0)
|   |   |   |   |   |   |   |   |   |   |   |   |   m_d1d1r > -0.000025: Medio (2.0)
|   |   |   |   |   |   |   |   v_d6n > 0.185927: Alto (9.0/1.0)
|   |   |   |   |   |   |   m_d9d1a > 1.294273
|   |   |   |   |   |   |   |   std_d2r <= 0.006304: Bajo (3.0)
|   |   |   |   |   |   |   |   std_d2r > 0.006304: Alto (2.0)
|   |   |   |   |   |   m_d3d1n > 0.000951: Bajo (8.0/1.0)
|   |   |   |   |   m_d4d2r > -0.001107
|   |   |   |   |   |   m_d4d2r <= 0.000531
|   |   |   |   |   |   |   std_d8a <= 0.260847
|   |   |   |   |   |   |   |   m_d6d2n <= -0.006972: Medio (4.0)
|   |   |   |   |   |   |   |   m_d6d2n > -0.006972
|   |   |   |   |   |   |   |   |   m_d1n <= -0.000068: Alto (3.0)
|   |   |   |   |   |   |   |   |   m_d1n > -0.000068
|   |   |   |   |   |   |   |   |   |   k_d8d1a <= 4.787538: Alto (43.0/11.0)
|   |   |   |   |   |   |   |   |   |   k_d8d1a > 4.787538
|   |   |   |   |   |   |   |   |   |   |   std_d8a <= 0.198708
|   |   |   |   |   |   |   |   |   |   |   |   m_d1d1r <= -0.000018
|   |   |   |   |   |   |   |   |   |   |   |   |   m_d5d2n <= -0.000182: Alto (2.0)
|   |   |   |   |   |   |   |   |   |   |   |   |   m_d5d2n > -0.000182: Medio (3.0)
|   |   |   |   |   |   |   |   |   |   |   |   m_d1d1r > -0.000018: Alto (2.0)
|   |   |   |   |   |   |   |   |   |   |   std_d8a > 0.198708
|   |   |   |   |   |   |   |   |   |   |   |   std_d7a <= 0.406398: Bajo (9.0)
|   |   |   |   |   |   |   |   |   |   |   |   std_d7a > 0.406398: Alto (4.0/1.0)
|   |   |   |   |   |   |   std_d8a > 0.260847
|   |   |   |   |   |   |   |   m_d2a <= 0.003814
|   |   |   |   |   |   |   |   |   k_d5a <= 1.742023
|   |   |   |   |   |   |   |   |   |   k_d8d1a <= 5.616364
|   |   |   |   |   |   |   |   |   |   |   std_d2r <= 0.008737: Alto (23.0/1.0)
|   |   |   |   |   |   |   |   |   |   |   std_d2r > 0.008737
|   |   |   |   |   |   |   |   |   |   |   |   m_d1n <= 0.000008: Bajo (6.0/1.0)
|   |   |   |   |   |   |   |   |   |   |   |   m_d1n > 0.000008: Alto (3.0)
|   |   |   |   |   |   |   |   |   |   k_d8d1a > 5.616364
|   |   |   |   |   |   |   |   |   |   |   std_d6d2a <= 0.481459: Alto (3.0/1.0)
|   |   |   |   |   |   |   |   |   |   |   std_d6d2a > 0.481459: Medio (8.0)
|   |   |   |   |   |   |   |   |   k_d5a > 1.742023
|   |   |   |   |   |   |   |   |   |   m_d6d2n <= -0.002152
|   |   |   |   |   |   |   |   |   |   |   std_d3d1n <= 0.247581
|   |   |   |   |   |   |   |   |   |   |   |   m_d1n <= -0.000044: Medio (4.0)
|   |   |   |   |   |   |   |   |   |   |   |   m_d1n > -0.000044
|   |   |   |   |   |   |   |   |   |   |   |   |   std_d6d2a <= 0.692405
|   |   |   |   |   |   |   |   |   |   |   |   |   |   k_d8d1a <= 6.37333
|   |   |   |   |   |   |   |   |   |   |   |   |   |   |   m_d6r <= 0.022275
|   |   |   |   |   |   |   |   |   |   |   |   |   |   |   |   m_d6r <= 0.012741
|   |   |   |   |   |   |   |   |   |   |   |   |   |   |   |   |   m_d3d1n <= -0.000363: Alto (2.0)
|   |   |   |   |   |   |   |   |   |   |   |   |   |   |   |   |   m_d3d1n > -0.000363: Medio (6.0/1.0)
|   |   |   |   |   |   |   |   |   |   |   |   |   |   |   |   m_d6r > 0.012741: Alto (11.0/1.0)
|   |   |   |   |   |   |   |   |   |   |   |   |   |   |   m_d6r > 0.022275
|   |   |   |   |   |   |   |   |   |   |   |   |   |   |   |   m_d9d1a <= 0.650272
|   |   |   |   |   |   |   |   |   |   |   |   |   |   |   |   |   k_d5n <= 3.070703: Alto (4.0)
|   |   |   |   |   |   |   |   |   |   |   |   |   |   |   |   |   k_d5n > 3.070703: Medio (7.0/1.0)
|   |   |   |   |   |   |   |   |   |   |   |   |   |   |   |   m_d9d1a > 0.650272: Medio (14.0)
|   |   |   |   |   |   |   |   |   |   |   |   |   |   k_d8d1a > 6.37333: Alto (8.0/1.0)
|   |   |   |   |   |   |   |   |   |   |   |   |   std_d6d2a > 0.692405
|   |   |   |   |   |   |   |   |   |   |   |   |   |   k_d8d1a <= 2.820596: Alto (3.0)
|   |   |   |   |   |   |   |   |   |   |   |   |   |   k_d8d1a > 2.820596
|   |   |   |   |   |   |   |   |   |   |   |   |   |   |   k_d10r <= 4.431206
|   |   |   |   |   |   |   |   |   |   |   |   |   |   |   |   std_d8a <= 0.407278: Medio (5.0)
|   |   |   |   |   |   |   |   |   |   |   |   |   |   |   |   std_d8a > 0.407278: Alto (3.0)
|   |   |   |   |   |   |   |   |   |   |   |   |   |   |   k_d10r > 4.431206: Medio (25.0)
|   |   |   |   |   |   |   |   |   |   |   std_d3d1n > 0.247581
|   |   |   |   |   |   |   |   |   |   |   |   k_d9a <= 2.115145: Alto (13.0/1.0)
|   |   |   |   |   |   |   |   |   |   |   |   k_d9a > 2.115145
|   |   |   |   |   |   |   |   |   |   |   |   |   m_d10r <= -0.000215
|   |   |   |   |   |   |   |   |   |   |   |   |   |   m_d5d2n <= -0.0004: Bajo (12.0)
|   |   |   |   |   |   |   |   |   |   |   |   |   |   m_d5d2n > -0.0004: Medio (2.0)
|   |   |   |   |   |   |   |   |   |   |   |   |   m_d10r > -0.000215
|   |   |   |   |   |   |   |   |   |   |   |   |   |   k_d8d1a <= 3.502433
|   |   |   |   |   |   |   |   |   |   |   |   |   |   |   m_d3d1n <= -0.000528: Alto (7.0/1.0)
|   |   |   |   |   |   |   |   |   |   |   |   |   |   |   m_d3d1n > -0.000528
|   |   |   |   |   |   |   |   |   |   |   |   |   |   |   |   std_d7a <= 0.427513: Medio (23.0/1.0)
|   |   |   |   |   |   |   |   |   |   |   |   |   |   |   |   std_d7a > 0.427513: Alto (2.0)
|   |   |   |   |   |   |   |   |   |   |   |   |   |   k_d8d1a > 3.502433
|   |   |   |   |   |   |   |   |   |   |   |   |   |   |   k_d9a <= 2.367269: Medio (12.0/1.0)
|   |   |   |   |   |   |   |   |   |   |   |   |   |   |   k_d9a > 2.367269
|   |   |   |   |   |   |   |   |   |   |   |   |   |   |   |   k_d3d1r <= 9.033118
|   |   |   |   |   |   |   |   |   |   |   |   |   |   |   |   |   k_d1d2r <= 26.318192
|   |   |   |   |   |   |   |   |   |   |   |   |   |   |   |   |   |   v_d6n <= 0.235541
|   |   |   |   |   |   |   |   |   |   |   |   |   |   |   |   |   |   |   std_d6d2a <= 0.374131: Bajo (8.0)
|   |   |   |   |   |   |   |   |   |   |   |   |   |   |   |   |   |   |   std_d6d2a > 0.374131
|   |   |   |   |   |   |   |   |   |   |   |   |   |   |   |   |   |   |   |   k_d8d1a <= 6.394654
|   |   |   |   |   |   |   |   |   |   |   |   |   |   |   |   |   |   |   |   |   m_d3d2n <= -0.000508
|   |   |   |   |   |   |   |   |   |   |   |   |   |   |   |   |   |   |   |   |   |   k_d10r <= 6.867859: Bajo (5.0)
|   |   |   |   |   |   |   |   |   |   |   |   |   |   |   |   |   |   |   |   |   |   k_d10r > 6.867859: Alto (5.0)
|   |   |   |   |   |   |   |   |   |   |   |   |   |   |   |   |   |   |   |   |   m_d3d2n > -0.000508
|   |   |   |   |   |   |   |   |   |   |   |   |   |   |   |   |   |   |   |   |   |   m_d6r <= 0.022537
|   |   |   |   |   |   |   |   |   |   |   |   |   |   |   |   |   |   |   |   |   |   |   m_d5d2n <= -0.001165
|   |   |   |   |   |   |   |   |   |   |   |   |   |   |   |   |   |   |   |   |   |   |   |   k_d1d2r <= 17.470727: Alto (6.0)
|   |   |   |   |   |   |   |   |   |   |   |   |   |   |   |   |   |   |   |   |   |   |   |   k_d1d2r > 17.470727
|   |   |   |   |   |   |   |   |   |   |   |   |   |   |   |   |   |   |   |   |   |   |   |   |   m_d3d2n <= 0.000299: Bajo (8.0)
|   |   |   |   |   |   |   |   |   |   |   |   |   |   |   |   |   |   |   |   |   |   |   |   |   m_d3d2n > 0.000299: Alto (2.0)
|   |   |   |   |   |   |   |   |   |   |   |   |   |   |   |   |   |   |   |   |   |   |   m_d5d2n > -0.001165
|   |   |   |   |   |   |   |   |   |   |   |   |   |   |   |   |   |   |   |   |   |   |   |   k_d5a <= 2.390032
|   |   |   |   |   |   |   |   |   |   |   |   |   |   |   |   |   |   |   |   |   |   |   |   |   std_d6d2a <= 0.422367: Alto (3.0)
|   |   |   |   |   |   |   |   |   |   |   |   |   |   |   |   |   |   |   |   |   |   |   |   |   std_d6d2a > 0.422367
|   |   |   |   |   |   |   |   |   |   |   |   |   |   |   |   |   |   |   |   |   |   |   |   |   |   m_d4d2r <= -0.001006: Alto (2.0)
|   |   |   |   |   |   |   |   |   |   |   |   |   |   |   |   |   |   |   |   |   |   |   |   |   |   m_d4d2r > -0.001006
|   |   |   |   |   |   |   |   |   |   |   |   |   |   |   |   |   |   |   |   |   |   |   |   |   |   |   k_d9a <= 2.554589
|   |   |   |   |   |   |   |   |   |   |   |   |   |   |   |   |   |   |   |   |   |   |   |   |   |   |   |   k_d1d2r <= 20.530998: Alto (2.0)
|   |   |   |   |   |   |   |   |   |   |   |   |   |   |   |   |   |   |   |   |   |   |   |   |   |   |   |   k_d1d2r > 20.530998: Bajo (3.0/1.0)
|   |   |   |   |   |   |   |   |   |   |   |   |   |   |   |   |   |   |   |   |   |   |   |   |   |   |   k_d9a > 2.554589
|   |   |   |   |   |   |   |   |   |   |   |   |   |   |   |   |   |   |   |   |   |   |   |   |   |   |   |   m_d5d2n <= 0.004057: Medio (21.0)
|   |   |   |   |   |   |   |   |   |   |   |   |   |   |   |   |   |   |   |   |   |   |   |   |   |   |   |   m_d5d2n > 0.004057
|   |   |   |   |   |   |   |   |   |   |   |   |   |   |   |   |   |   |   |   |   |   |   |   |   |   |   |   |   m_d6r <= 0.0187
|   |   |   |   |   |   |   |   |   |   |   |   |   |   |   |   |   |   |   |   |   |   |   |   |   |   |   |   |   |   m_d4d2r <= -0.00023: Medio (11.0/1.0)
|   |   |   |   |   |   |   |   |   |   |   |   |   |   |   |   |   |   |   |   |   |   |   |   |   |   |   |   |   |   m_d4d2r > -0.00023
|   |   |   |   |   |   |   |   |   |   |   |   |   |   |   |   |   |   |   |   |   |   |   |   |   |   |   |   |   |   |   k_d3d1r <= 5.247516: Medio (2.0)
|   |   |   |   |   |   |   |   |   |   |   |   |   |   |   |   |   |   |   |   |   |   |   |   |   |   |   |   |   |   |   k_d3d1r > 5.247516: Bajo (3.0/1.0)
|   |   |   |   |   |   |   |   |   |   |   |   |   |   |   |   |   |   |   |   |   |   |   |   |   |   |   |   |   m_d6r > 0.0187: Bajo (6.0/1.0)
|   |   |   |   |   |   |   |   |   |   |   |   |   |   |   |   |   |   |   |   |   |   |   |   k_d5a > 2.390032: Alto (3.0)
|   |   |   |   |   |   |   |   |   |   |   |   |   |   |   |   |   |   |   |   |   |   m_d6r > 0.022537
|   |   |   |   |   |   |   |   |   |   |   |   |   |   |   |   |   |   |   |   |   |   |   std_d2r <= 0.008279
|   |   |   |   |   |   |   |   |   |   |   |   |   |   |   |   |   |   |   |   |   |   |   |   std_d4d2a <= 0.717312: Bajo (6.0/1.0)
|   |   |   |   |   |   |   |   |   |   |   |   |   |   |   |   |   |   |   |   |   |   |   |   std_d4d2a > 0.717312: Medio (12.0/1.0)
|   |   |   |   |   |   |   |   |   |   |   |   |   |   |   |   |   |   |   |   |   |   |   std_d2r > 0.008279: Bajo (6.0)
|   |   |   |   |   |   |   |   |   |   |   |   |   |   |   |   |   |   |   |   k_d8d1a > 6.394654: Alto (6.0)
|   |   |   |   |   |   |   |   |   |   |   |   |   |   |   |   |   |   v_d6n > 0.235541: Alto (12.0/1.0)
|   |   |   |   |   |   |   |   |   |   |   |   |   |   |   |   |   k_d1d2r > 26.318192
|   |   |   |   |   |   |   |   |   |   |   |   |   |   |   |   |   |   std_d7a <= 0.289326
|   |   |   |   |   |   |   |   |   |   |   |   |   |   |   |   |   |   |   v_d6n <= 0.151406: Medio (4.0)
|   |   |   |   |   |   |   |   |   |   |   |   |   |   |   |   |   |   |   v_d6n > 0.151406: Alto (3.0/1.0)
|   |   |   |   |   |   |   |   |   |   |   |   |   |   |   |   |   |   std_d7a > 0.289326
|   |   |   |   |   |   |   |   |   |   |   |   |   |   |   |   |   |   |   m_d9d1n <= 0.000991: Alto (4.0)
|   |   |   |   |   |   |   |   |   |   |   |   |   |   |   |   |   |   |   m_d9d1n > 0.000991
|   |   |   |   |   |   |   |   |   |   |   |   |   |   |   |   |   |   |   |   std_d6d2a <= 0.432791: Alto (3.0)
|   |   |   |   |   |   |   |   |   |   |   |   |   |   |   |   |   |   |   |   std_d6d2a > 0.432791
|   |   |   |   |   |   |   |   |   |   |   |   |   |   |   |   |   |   |   |   |   m_d4d2r <= -0.000846: Alto (2.0)
|   |   |   |   |   |   |   |   |   |   |   |   |   |   |   |   |   |   |   |   |   m_d4d2r > -0.000846: Bajo (39.0)
|   |   |   |   |   |   |   |   |   |   |   |   |   |   |   |   k_d3d1r > 9.033118
|   |   |   |   |   |   |   |   |   |   |   |   |   |   |   |   |   std_d7a <= 0.345957: Medio (10.0)
|   |   |   |   |   |   |   |   |   |   |   |   |   |   |   |   |   std_d7a > 0.345957: Alto (3.0/1.0)
|   |   |   |   |   |   |   |   |   |   m_d6d2n > -0.002152
|   |   |   |   |   |   |   |   |   |   |   std_d4d2a <= 0.27918
|   |   |   |   |   |   |   |   |   |   |   |   m_d1n <= -0.000055: Alto (2.0)
|   |   |   |   |   |   |   |   |   |   |   |   m_d1n > -0.000055
|   |   |   |   |   |   |   |   |   |   |   |   |   k_d8d1a <= 3.997723: Bajo (21.0)
|   |   |   |   |   |   |   |   |   |   |   |   |   k_d8d1a > 3.997723
|   |   |   |   |   |   |   |   |   |   |   |   |   |   m_d6r <= 0.012415: Alto (3.0)
|   |   |   |   |   |   |   |   |   |   |   |   |   |   m_d6r > 0.012415: Bajo (5.0/1.0)
|   |   |   |   |   |   |   |   |   |   |   std_d4d2a > 0.27918
|   |   |   |   |   |   |   |   |   |   |   |   std_d3d1n <= 0.145546
|   |   |   |   |   |   |   |   |   |   |   |   |   m_d2a <= 0.0005
|   |   |   |   |   |   |   |   |   |   |   |   |   |   v_d2n <= 0.008096: Alto (21.0/2.0)
|   |   |   |   |   |   |   |   |   |   |   |   |   |   v_d2n > 0.008096: Medio (4.0)
|   |   |   |   |   |   |   |   |   |   |   |   |   m_d2a > 0.0005: Medio (8.0/1.0)
|   |   |   |   |   |   |   |   |   |   |   |   std_d3d1n > 0.145546
|   |   |   |   |   |   |   |   |   |   |   |   |   std_d3d2a <= 0.040026
|   |   |   |   |   |   |   |   |   |   |   |   |   |   k_d9a <= 6.678821: Bajo (33.0/1.0)
|   |   |   |   |   |   |   |   |   |   |   |   |   |   k_d9a > 6.678821: Alto (2.0)
|   |   |   |   |   |   |   |   |   |   |   |   |   std_d3d2a > 0.040026
|   |   |   |   |   |   |   |   |   |   |   |   |   |   m_d10r <= -0.006026
|   |   |   |   |   |   |   |   |   |   |   |   |   |   |   m_d3d1n <= 0.000615
|   |   |   |   |   |   |   |   |   |   |   |   |   |   |   |   m_d9d1a <= 1.252367
|   |   |   |   |   |   |   |   |   |   |   |   |   |   |   |   |   v_d6n <= 0.166417
|   |   |   |   |   |   |   |   |   |   |   |   |   |   |   |   |   |   m_d4d2r <= -0.00033
|   |   |   |   |   |   |   |   |   |   |   |   |   |   |   |   |   |   |   k_d9a <= 4.310839: Alto (6.0/1.0)
|   |   |   |   |   |   |   |   |   |   |   |   |   |   |   |   |   |   |   k_d9a > 4.310839: Medio (7.0)
|   |   |   |   |   |   |   |   |   |   |   |   |   |   |   |   |   |   m_d4d2r > -0.00033: Medio (13.0)
|   |   |   |   |   |   |   |   |   |   |   |   |   |   |   |   |   v_d6n > 0.166417: Alto (4.0)
|   |   |   |   |   |   |   |   |   |   |   |   |   |   |   |   m_d9d1a > 1.252367: Alto (3.0/1.0)
|   |   |   |   |   |   |   |   |   |   |   |   |   |   |   m_d3d1n > 0.000615
|   |   |   |   |   |   |   |   |   |   |   |   |   |   |   |   v_d2n <= 0.017774: Bajo (3.0)
|   |   |   |   |   |   |   |   |   |   |   |   |   |   |   |   v_d2n > 0.017774: Medio (2.0)
|   |   |   |   |   |   |   |   |   |   |   |   |   |   m_d10r > -0.006026
|   |   |   |   |   |   |   |   |   |   |   |   |   |   |   m_d4d2r <= 0.000135
|   |   |   |   |   |   |   |   |   |   |   |   |   |   |   |   std_d7a <= 0.213128
|   |   |   |   |   |   |   |   |   |   |   |   |   |   |   |   |   std_d2r <= 0.007488: Alto (17.0/1.0)
|   |   |   |   |   |   |   |   |   |   |   |   |   |   |   |   |   std_d2r > 0.007488
|   |   |   |   |   |   |   |   |   |   |   |   |   |   |   |   |   |   m_d9d1n <= 0.003316: Medio (4.0)
|   |   |   |   |   |   |   |   |   |   |   |   |   |   |   |   |   |   m_d9d1n > 0.003316
|   |   |   |   |   |   |   |   |   |   |   |   |   |   |   |   |   |   |   m_d9d1a <= 0.302264
|   |   |   |   |   |   |   |   |   |   |   |   |   |   |   |   |   |   |   |   k_d5n <= 2.195153
|   |   |   |   |   |   |   |   |   |   |   |   |   |   |   |   |   |   |   |   |   m_d9d1n <= 0.006545: Alto (5.0)
|   |   |   |   |   |   |   |   |   |   |   |   |   |   |   |   |   |   |   |   |   m_d9d1n > 0.006545: Medio (6.0/1.0)
|   |   |   |   |   |   |   |   |   |   |   |   |   |   |   |   |   |   |   |   k_d5n > 2.195153: Bajo (5.0/1.0)
|   |   |   |   |   |   |   |   |   |   |   |   |   |   |   |   |   |   |   m_d9d1a > 0.302264: Bajo (10.0)
|   |   |   |   |   |   |   |   |   |   |   |   |   |   |   |   std_d7a > 0.213128
|   |   |   |   |   |   |   |   |   |   |   |   |   |   |   |   |   std_d3d2a <= 0.09028
|   |   |   |   |   |   |   |   |   |   |   |   |   |   |   |   |   |   m_d4d2r <= -0.000582
|   |   |   |   |   |   |   |   |   |   |   |   |   |   |   |   |   |   |   k_d2d1a <= 15.707681: Bajo (12.0)
|   |   |   |   |   |   |   |   |   |   |   |   |   |   |   |   |   |   |   k_d2d1a > 15.707681
|   |   |   |   |   |   |   |   |   |   |   |   |   |   |   |   |   |   |   |   m_d10r <= -0.005105: Bajo (8.0/1.0)
|   |   |   |   |   |   |   |   |   |   |   |   |   |   |   |   |   |   |   |   m_d10r > -0.005105
|   |   |   |   |   |   |   |   |   |   |   |   |   |   |   |   |   |   |   |   |   m_d4d2r <= -0.001056: Bajo (4.0/1.0)
|   |   |   |   |   |   |   |   |   |   |   |   |   |   |   |   |   |   |   |   |   m_d4d2r > -0.001056
|   |   |   |   |   |   |   |   |   |   |   |   |   |   |   |   |   |   |   |   |   |   m_d1n <= 0.000077
|   |   |   |   |   |   |   |   |   |   |   |   |   |   |   |   |   |   |   |   |   |   |   m_d9d1n <= 0.00126
|   |   |   |   |   |   |   |   |   |   |   |   |   |   |   |   |   |   |   |   |   |   |   |   std_d4d2a <= 0.521539
|   |   |   |   |   |   |   |   |   |   |   |   |   |   |   |   |   |   |   |   |   |   |   |   |   m_d3d1n <= -0.000028: Medio (2.0)
|   |   |   |   |   |   |   |   |   |   |   |   |   |   |   |   |   |   |   |   |   |   |   |   |   m_d3d1n > -0.000028: Bajo (2.0)
|   |   |   |   |   |   |   |   |   |   |   |   |   |   |   |   |   |   |   |   |   |   |   |   std_d4d2a > 0.521539: Alto (15.0/1.0)
|   |   |   |   |   |   |   |   |   |   |   |   |   |   |   |   |   |   |   |   |   |   |   m_d9d1n > 0.00126
|   |   |   |   |   |   |   |   |   |   |   |   |   |   |   |   |   |   |   |   |   |   |   |   k_d2d1a <= 19.062051
|   |   |   |   |   |   |   |   |   |   |   |   |   |   |   |   |   |   |   |   |   |   |   |   |   k_d5n <= 2.13991
|   |   |   |   |   |   |   |   |   |   |   |   |   |   |   |   |   |   |   |   |   |   |   |   |   |   k_d2d1a <= 17.113969: Medio (5.0/1.0)
|   |   |   |   |   |   |   |   |   |   |   |   |   |   |   |   |   |   |   |   |   |   |   |   |   |   k_d2d1a > 17.113969: Alto (7.0/1.0)
|   |   |   |   |   |   |   |   |   |   |   |   |   |   |   |   |   |   |   |   |   |   |   |   |   k_d5n > 2.13991
|   |   |   |   |   |   |   |   |   |   |   |   |   |   |   |   |   |   |   |   |   |   |   |   |   |   m_d3d2a <= 0.057769: Alto (2.0)
|   |   |   |   |   |   |   |   |   |   |   |   |   |   |   |   |   |   |   |   |   |   |   |   |   |   m_d3d2a > 0.057769: Bajo (7.0)
|   |   |   |   |   |   |   |   |   |   |   |   |   |   |   |   |   |   |   |   |   |   |   |   k_d2d1a > 19.062051
|   |   |   |   |   |   |   |   |   |   |   |   |   |   |   |   |   |   |   |   |   |   |   |   |   m_d4d2r <= -0.000607
|   |   |   |   |   |   |   |   |   |   |   |   |   |   |   |   |   |   |   |   |   |   |   |   |   |   std_d6d2a <= 0.424533: Alto (3.0/1.0)
|   |   |   |   |   |   |   |   |   |   |   |   |   |   |   |   |   |   |   |   |   |   |   |   |   |   std_d6d2a > 0.424533
|   |   |   |   |   |   |   |   |   |   |   |   |   |   |   |   |   |   |   |   |   |   |   |   |   |   |   m_d1n <= 0.00003
|   |   |   |   |   |   |   |   |   |   |   |   |   |   |   |   |   |   |   |   |   |   |   |   |   |   |   |   m_d5d2n <= 0.001393
|   |   |   |   |   |   |   |   |   |   |   |   |   |   |   |   |   |   |   |   |   |   |   |   |   |   |   |   |   m_d9d1a <= 0.759521: Medio (28.0)
|   |   |   |   |   |   |   |   |   |   |   |   |   |   |   |   |   |   |   |   |   |   |   |   |   |   |   |   |   m_d9d1a > 0.759521
|   |   |   |   |   |   |   |   |   |   |   |   |   |   |   |   |   |   |   |   |   |   |   |   |   |   |   |   |   |   v_d6n <= 0.119578
|   |   |   |   |   |   |   |   |   |   |   |   |   |   |   |   |   |   |   |   |   |   |   |   |   |   |   |   |   |   |   m_d5d2n <= -0.000968: Alto (4.0)
|   |   |   |   |   |   |   |   |   |   |   |   |   |   |   |   |   |   |   |   |   |   |   |   |   |   |   |   |   |   |   m_d5d2n > -0.000968: Medio (6.0/1.0)
|   |   |   |   |   |   |   |   |   |   |   |   |   |   |   |   |   |   |   |   |   |   |   |   |   |   |   |   |   |   v_d6n > 0.119578: Medio (7.0)
|   |   |   |   |   |   |   |   |   |   |   |   |   |   |   |   |   |   |   |   |   |   |   |   |   |   |   |   m_d5d2n > 0.001393
|   |   |   |   |   |   |   |   |   |   |   |   |   |   |   |   |   |   |   |   |   |   |   |   |   |   |   |   |   std_d4d2a <= 0.65825: Medio (4.0)
|   |   |   |   |   |   |   |   |   |   |   |   |   |   |   |   |   |   |   |   |   |   |   |   |   |   |   |   |   std_d4d2a > 0.65825: Alto (6.0)
|   |   |   |   |   |   |   |   |   |   |   |   |   |   |   |   |   |   |   |   |   |   |   |   |   |   |   m_d1n > 0.00003: Alto (3.0/1.0)
|   |   |   |   |   |   |   |   |   |   |   |   |   |   |   |   |   |   |   |   |   |   |   |   |   m_d4d2r > -0.000607
|   |   |   |   |   |   |   |   |   |   |   |   |   |   |   |   |   |   |   |   |   |   |   |   |   |   std_d2r <= 0.006651: Bajo (2.0)
|   |   |   |   |   |   |   |   |   |   |   |   |   |   |   |   |   |   |   |   |   |   |   |   |   |   std_d2r > 0.006651: Medio (2.0)
|   |   |   |   |   |   |   |   |   |   |   |   |   |   |   |   |   |   |   |   |   |   m_d1n > 0.000077: Medio (4.0)
|   |   |   |   |   |   |   |   |   |   |   |   |   |   |   |   |   |   m_d4d2r > -0.000582
|   |   |   |   |   |   |   |   |   |   |   |   |   |   |   |   |   |   |   m_d3d1n <= -0.000779
|   |   |   |   |   |   |   |   |   |   |   |   |   |   |   |   |   |   |   |   m_d9d1n <= 0.002825
|   |   |   |   |   |   |   |   |   |   |   |   |   |   |   |   |   |   |   |   |   std_d8a <= 0.305169: Bajo (3.0)
|   |   |   |   |   |   |   |   |   |   |   |   |   |   |   |   |   |   |   |   |   std_d8a > 0.305169
|   |   |   |   |   |   |   |   |   |   |   |   |   |   |   |   |   |   |   |   |   |   std_d6d2a <= 1.50796: Alto (20.0/3.0)
|   |   |   |   |   |   |   |   |   |   |   |   |   |   |   |   |   |   |   |   |   |   std_d6d2a > 1.50796: Bajo (7.0/1.0)
|   |   |   |   |   |   |   |   |   |   |   |   |   |   |   |   |   |   |   |   m_d9d1n > 0.002825
|   |   |   |   |   |   |   |   |   |   |   |   |   |   |   |   |   |   |   |   |   std_d3d2a <= 0.087186: Medio (4.0)
|   |   |   |   |   |   |   |   |   |   |   |   |   |   |   |   |   |   |   |   |   std_d3d2a > 0.087186: Bajo (2.0)
|   |   |   |   |   |   |   |   |   |   |   |   |   |   |   |   |   |   |   m_d3d1n > -0.000779
|   |   |   |   |   |   |   |   |   |   |   |   |   |   |   |   |   |   |   |   m_d5d2n <= -0.003458
|   |   |   |   |   |   |   |   |   |   |   |   |   |   |   |   |   |   |   |   |   k_d5n <= 2.15229
|   |   |   |   |   |   |   |   |   |   |   |   |   |   |   |   |   |   |   |   |   |   m_d3d1n <= -0.000196: Medio (8.0)
|   |   |   |   |   |   |   |   |   |   |   |   |   |   |   |   |   |   |   |   |   |   m_d3d1n > -0.000196: Alto (2.0)
|   |   |   |   |   |   |   |   |   |   |   |   |   |   |   |   |   |   |   |   |   k_d5n > 2.15229
|   |   |   |   |   |   |   |   |   |   |   |   |   |   |   |   |   |   |   |   |   |   m_d5d2n <= -0.004172
|   |   |   |   |   |   |   |   |   |   |   |   |   |   |   |   |   |   |   |   |   |   |   k_d8d1a <= 4.316926: Bajo (11.0)
|   |   |   |   |   |   |   |   |   |   |   |   |   |   |   |   |   |   |   |   |   |   |   k_d8d1a > 4.316926
|   |   |   |   |   |   |   |   |   |   |   |   |   |   |   |   |   |   |   |   |   |   |   |   m_d9d1n <= 0.001048: Bajo (2.0)
|   |   |   |   |   |   |   |   |   |   |   |   |   |   |   |   |   |   |   |   |   |   |   |   m_d9d1n > 0.001048: Medio (5.0)
|   |   |   |   |   |   |   |   |   |   |   |   |   |   |   |   |   |   |   |   |   |   m_d5d2n > -0.004172: Medio (7.0)
|   |   |   |   |   |   |   |   |   |   |   |   |   |   |   |   |   |   |   |   m_d5d2n > -0.003458
|   |   |   |   |   |   |   |   |   |   |   |   |   |   |   |   |   |   |   |   |   m_d5d2n <= 0.002701
|   |   |   |   |   |   |   |   |   |   |   |   |   |   |   |   |   |   |   |   |   |   m_d9d1a <= 0.334837: Alto (11.0/3.0)
|   |   |   |   |   |   |   |   |   |   |   |   |   |   |   |   |   |   |   |   |   |   m_d9d1a > 0.334837
|   |   |   |   |   |   |   |   |   |   |   |   |   |   |   |   |   |   |   |   |   |   |   m_d4d2r <= 0.000055
|   |   |   |   |   |   |   |   |   |   |   |   |   |   |   |   |   |   |   |   |   |   |   |   m_d3d1n <= -0.000029
|   |   |   |   |   |   |   |   |   |   |   |   |   |   |   |   |   |   |   |   |   |   |   |   |   m_d4d2r <= -0.000451
|   |   |   |   |   |   |   |   |   |   |   |   |   |   |   |   |   |   |   |   |   |   |   |   |   |   m_d6r <= 0.015222: Bajo (7.0)
|   |   |   |   |   |   |   |   |   |   |   |   |   |   |   |   |   |   |   |   |   |   |   |   |   |   m_d6r > 0.015222
|   |   |   |   |   |   |   |   |   |   |   |   |   |   |   |   |   |   |   |   |   |   |   |   |   |   |   m_d3d2n <= -0.00047: Bajo (3.0)
|   |   |   |   |   |   |   |   |   |   |   |   |   |   |   |   |   |   |   |   |   |   |   |   |   |   |   m_d3d2n > -0.00047
|   |   |   |   |   |   |   |   |   |   |   |   |   |   |   |   |   |   |   |   |   |   |   |   |   |   |   |   m_d2a <= 0.002349
|   |   |   |   |   |   |   |   |   |   |   |   |   |   |   |   |   |   |   |   |   |   |   |   |   |   |   |   |   m_d5d2n <= -0.000743: Bajo (3.0/1.0)
|   |   |   |   |   |   |   |   |   |   |   |   |   |   |   |   |   |   |   |   |   |   |   |   |   |   |   |   |   m_d5d2n > -0.000743
|   |   |   |   |   |   |   |   |   |   |   |   |   |   |   |   |   |   |   |   |   |   |   |   |   |   |   |   |   |   m_d1n <= 0.000008
|   |   |   |   |   |   |   |   |   |   |   |   |   |   |   |   |   |   |   |   |   |   |   |   |   |   |   |   |   |   |   k_d9a <= 3.69857: Alto (4.0)
|   |   |   |   |   |   |   |   |   |   |   |   |   |   |   |   |   |   |   |   |   |   |   |   |   |   |   |   |   |   |   k_d9a > 3.69857: Medio (2.0)
|   |   |   |   |   |   |   |   |   |   |   |   |   |   |   |   |   |   |   |   |   |   |   |   |   |   |   |   |   |   m_d1n > 0.000008: Alto (5.0)
|   |   |   |   |   |   |   |   |   |   |   |   |   |   |   |   |   |   |   |   |   |   |   |   |   |   |   |   m_d2a > 0.002349: Medio (5.0)
|   |   |   |   |   |   |   |   |   |   |   |   |   |   |   |   |   |   |   |   |   |   |   |   |   m_d4d2r > -0.000451
|   |   |   |   |   |   |   |   |   |   |   |   |   |   |   |   |   |   |   |   |   |   |   |   |   |   k_d5n <= 2.605963
|   |   |   |   |   |   |   |   |   |   |   |   |   |   |   |   |   |   |   |   |   |   |   |   |   |   |   std_d4d2a <= 0.718322
|   |   |   |   |   |   |   |   |   |   |   |   |   |   |   |   |   |   |   |   |   |   |   |   |   |   |   |   k_d10r <= 7.466403
|   |   |   |   |   |   |   |   |   |   |   |   |   |   |   |   |   |   |   |   |   |   |   |   |   |   |   |   |   k_d1d2r <= 21.466358
|   |   |   |   |   |   |   |   |   |   |   |   |   |   |   |   |   |   |   |   |   |   |   |   |   |   |   |   |   |   std_d2r <= 0.007524: Medio (3.0/1.0)
|   |   |   |   |   |   |   |   |   |   |   |   |   |   |   |   |   |   |   |   |   |   |   |   |   |   |   |   |   |   std_d2r > 0.007524: Bajo (8.0)
|   |   |   |   |   |   |   |   |   |   |   |   |   |   |   |   |   |   |   |   |   |   |   |   |   |   |   |   |   k_d1d2r > 21.466358: Bajo (67.0)
|   |   |   |   |   |   |   |   |   |   |   |   |   |   |   |   |   |   |   |   |   |   |   |   |   |   |   |   k_d10r > 7.466403
|   |   |   |   |   |   |   |   |   |   |   |   |   |   |   |   |   |   |   |   |   |   |   |   |   |   |   |   |   m_d5d2n <= -0.000442: Bajo (2.0/1.0)
|   |   |   |   |   |   |   |   |   |   |   |   |   |   |   |   |   |   |   |   |   |   |   |   |   |   |   |   |   m_d5d2n > -0.000442: Alto (2.0)
|   |   |   |   |   |   |   |   |   |   |   |   |   |   |   |   |   |   |   |   |   |   |   |   |   |   |   std_d4d2a > 0.718322
|   |   |   |   |   |   |   |   |   |   |   |   |   |   |   |   |   |   |   |   |   |   |   |   |   |   |   |   std_d6d2a <= 0.572327: Bajo (5.0)
|   |   |   |   |   |   |   |   |   |   |   |   |   |   |   |   |   |   |   |   |   |   |   |   |   |   |   |   std_d6d2a > 0.572327
|   |   |   |   |   |   |   |   |   |   |   |   |   |   |   |   |   |   |   |   |   |   |   |   |   |   |   |   |   k_d5a <= 1.975071: Medio (2.0)
|   |   |   |   |   |   |   |   |   |   |   |   |   |   |   |   |   |   |   |   |   |   |   |   |   |   |   |   |   k_d5a > 1.975071: Alto (3.0)
|   |   |   |   |   |   |   |   |   |   |   |   |   |   |   |   |   |   |   |   |   |   |   |   |   |   k_d5n > 2.605963
|   |   |   |   |   |   |   |   |   |   |   |   |   |   |   |   |   |   |   |   |   |   |   |   |   |   |   k_d9a <= 6.05394
|   |   |   |   |   |   |   |   |   |   |   |   |   |   |   |   |   |   |   |   |   |   |   |   |   |   |   |   m_d3d2n <= -0.000288
|   |   |   |   |   |   |   |   |   |   |   |   |   |   |   |   |   |   |   |   |   |   |   |   |   |   |   |   |   k_d1d2r <= 22.587655: Bajo (2.0)
|   |   |   |   |   |   |   |   |   |   |   |   |   |   |   |   |   |   |   |   |   |   |   |   |   |   |   |   |   k_d1d2r > 22.587655: Medio (5.0)
|   |   |   |   |   |   |   |   |   |   |   |   |   |   |   |   |   |   |   |   |   |   |   |   |   |   |   |   m_d3d2n > -0.000288
|   |   |   |   |   |   |   |   |   |   |   |   |   |   |   |   |   |   |   |   |   |   |   |   |   |   |   |   |   v_d6n <= 0.074247
|   |   |   |   |   |   |   |   |   |   |   |   |   |   |   |   |   |   |   |   |   |   |   |   |   |   |   |   |   |   k_d5a <= 3.532602
|   |   |   |   |   |   |   |   |   |   |   |   |   |   |   |   |   |   |   |   |   |   |   |   |   |   |   |   |   |   |   k_d2d1a <= 56.303025: Alto (2.0)
|   |   |   |   |   |   |   |   |   |   |   |   |   |   |   |   |   |   |   |   |   |   |   |   |   |   |   |   |   |   |   k_d2d1a > 56.303025: Medio (7.0)
|   |   |   |   |   |   |   |   |   |   |   |   |   |   |   |   |   |   |   |   |   |   |   |   |   |   |   |   |   |   k_d5a > 3.532602: Bajo (6.0/1.0)
|   |   |   |   |   |   |   |   |   |   |   |   |   |   |   |   |   |   |   |   |   |   |   |   |   |   |   |   |   v_d6n > 0.074247
|   |   |   |   |   |   |   |   |   |   |   |   |   |   |   |   |   |   |   |   |   |   |   |   |   |   |   |   |   |   k_d8d1a <= 3.475359: Bajo (21.0)
|   |   |   |   |   |   |   |   |   |   |   |   |   |   |   |   |   |   |   |   |   |   |   |   |   |   |   |   |   |   k_d8d1a > 3.475359
|   |   |   |   |   |   |   |   |   |   |   |   |   |   |   |   |   |   |   |   |   |   |   |   |   |   |   |   |   |   |   std_d3d2a <= 0.04387: Alto (3.0)
|   |   |   |   |   |   |   |   |   |   |   |   |   |   |   |   |   |   |   |   |   |   |   |   |   |   |   |   |   |   |   std_d3d2a > 0.04387
|   |   |   |   |   |   |   |   |   |   |   |   |   |   |   |   |   |   |   |   |   |   |   |   |   |   |   |   |   |   |   |   std_d6d2a <= 0.302073: Alto (3.0)
|   |   |   |   |   |   |   |   |   |   |   |   |   |   |   |   |   |   |   |   |   |   |   |   |   |   |   |   |   |   |   |   std_d6d2a > 0.302073
|   |   |   |   |   |   |   |   |   |   |   |   |   |   |   |   |   |   |   |   |   |   |   |   |   |   |   |   |   |   |   |   |   m_d3d2n <= -0.000198
|   |   |   |   |   |   |   |   |   |   |   |   |   |   |   |   |   |   |   |   |   |   |   |   |   |   |   |   |   |   |   |   |   |   m_d6r <= 0.027181: Bajo (5.0/1.0)
|   |   |   |   |   |   |   |   |   |   |   |   |   |   |   |   |   |   |   |   |   |   |   |   |   |   |   |   |   |   |   |   |   |   m_d6r > 0.027181: Alto (6.0/1.0)
|   |   |   |   |   |   |   |   |   |   |   |   |   |   |   |   |   |   |   |   |   |   |   |   |   |   |   |   |   |   |   |   |   m_d3d2n > -0.000198
|   |   |   |   |   |   |   |   |   |   |   |   |   |   |   |   |   |   |   |   |   |   |   |   |   |   |   |   |   |   |   |   |   |   k_d9a <= 3.320958
|   |   |   |   |   |   |   |   |   |   |   |   |   |   |   |   |   |   |   |   |   |   |   |   |   |   |   |   |   |   |   |   |   |   |   m_d3d2n <= 0.000134: Bajo (16.0)
|   |   |   |   |   |   |   |   |   |   |   |   |   |   |   |   |   |   |   |   |   |   |   |   |   |   |   |   |   |   |   |   |   |   |   m_d3d2n > 0.000134
|   |   |   |   |   |   |   |   |   |   |   |   |   |   |   |   |   |   |   |   |   |   |   |   |   |   |   |   |   |   |   |   |   |   |   |   m_d9d1n <= 0.002097: Bajo (4.0)
|   |   |   |   |   |   |   |   |   |   |   |   |   |   |   |   |   |   |   |   |   |   |   |   |   |   |   |   |   |   |   |   |   |   |   |   m_d9d1n > 0.002097: Alto (5.0/1.0)
|   |   |   |   |   |   |   |   |   |   |   |   |   |   |   |   |   |   |   |   |   |   |   |   |   |   |   |   |   |   |   |   |   |   k_d9a > 3.320958
|   |   |   |   |   |   |   |   |   |   |   |   |   |   |   |   |   |   |   |   |   |   |   |   |   |   |   |   |   |   |   |   |   |   |   std_d7d2r <= 1.042341: Bajo (15.0/1.0)
|   |   |   |   |   |   |   |   |   |   |   |   |   |   |   |   |   |   |   |   |   |   |   |   |   |   |   |   |   |   |   |   |   |   |   std_d7d2r > 1.042341
|   |   |   |   |   |   |   |   |   |   |   |   |   |   |   |   |   |   |   |   |   |   |   |   |   |   |   |   |   |   |   |   |   |   |   |   k_d9a <= 3.651823: Medio (3.0)
|   |   |   |   |   |   |   |   |   |   |   |   |   |   |   |   |   |   |   |   |   |   |   |   |   |   |   |   |   |   |   |   |   |   |   |   k_d9a > 3.651823
|   |   |   |   |   |   |   |   |   |   |   |   |   |   |   |   |   |   |   |   |   |   |   |   |   |   |   |   |   |   |   |   |   |   |   |   |   m_d5d2n <= -0.002276: Medio (2.0)
|   |   |   |   |   |   |   |   |   |   |   |   |   |   |   |   |   |   |   |   |   |   |   |   |   |   |   |   |   |   |   |   |   |   |   |   |   m_d5d2n > -0.002276
|   |   |   |   |   |   |   |   |   |   |   |   |   |   |   |   |   |   |   |   |   |   |   |   |   |   |   |   |   |   |   |   |   |   |   |   |   |   m_d9d1a <= 1.218827: Bajo (15.0)
|   |   |   |   |   |   |   |   |   |   |   |   |   |   |   |   |   |   |   |   |   |   |   |   |   |   |   |   |   |   |   |   |   |   |   |   |   |   m_d9d1a > 1.218827: Medio (2.0)
|   |   |   |   |   |   |   |   |   |   |   |   |   |   |   |   |   |   |   |   |   |   |   |   |   |   |   k_d9a > 6.05394
|   |   |   |   |   |   |   |   |   |   |   |   |   |   |   |   |   |   |   |   |   |   |   |   |   |   |   |   m_d10r <= -0.004052: Medio (4.0)
|   |   |   |   |   |   |   |   |   |   |   |   |   |   |   |   |   |   |   |   |   |   |   |   |   |   |   |   m_d10r > -0.004052: Alto (5.0/1.0)
|   |   |   |   |   |   |   |   |   |   |   |   |   |   |   |   |   |   |   |   |   |   |   |   m_d3d1n > -0.000029
|   |   |   |   |   |   |   |   |   |   |   |   |   |   |   |   |   |   |   |   |   |   |   |   |   k_d10r <= 5.663333
|   |   |   |   |   |   |   |   |   |   |   |   |   |   |   |   |   |   |   |   |   |   |   |   |   |   k_d5n <= 3.325024
|   |   |   |   |   |   |   |   |   |   |   |   |   |   |   |   |   |   |   |   |   |   |   |   |   |   |   std_d8a <= 0.490325: Bajo (11.0)
|   |   |   |   |   |   |   |   |   |   |   |   |   |   |   |   |   |   |   |   |   |   |   |   |   |   |   std_d8a > 0.490325
|   |   |   |   |   |   |   |   |   |   |   |   |   |   |   |   |   |   |   |   |   |   |   |   |   |   |   |   m_d6d2n <= -0.001038: Bajo (2.0)
|   |   |   |   |   |   |   |   |   |   |   |   |   |   |   |   |   |   |   |   |   |   |   |   |   |   |   |   m_d6d2n > -0.001038: Medio (5.0)
|   |   |   |   |   |   |   |   |   |   |   |   |   |   |   |   |   |   |   |   |   |   |   |   |   |   k_d5n > 3.325024
|   |   |   |   |   |   |   |   |   |   |   |   |   |   |   |   |   |   |   |   |   |   |   |   |   |   |   m_d6r <= 0.027828: Alto (3.0)
|   |   |   |   |   |   |   |   |   |   |   |   |   |   |   |   |   |   |   |   |   |   |   |   |   |   |   m_d6r > 0.027828: Medio (3.0)
|   |   |   |   |   |   |   |   |   |   |   |   |   |   |   |   |   |   |   |   |   |   |   |   |   k_d10r > 5.663333
|   |   |   |   |   |   |   |   |   |   |   |   |   |   |   |   |   |   |   |   |   |   |   |   |   |   k_d8d1a <= 5.167369: Alto (5.0)
|   |   |   |   |   |   |   |   |   |   |   |   |   |   |   |   |   |   |   |   |   |   |   |   |   |   k_d8d1a > 5.167369: Medio (7.0/1.0)
|   |   |   |   |   |   |   |   |   |   |   |   |   |   |   |   |   |   |   |   |   |   |   m_d4d2r > 0.000055
|   |   |   |   |   |   |   |   |   |   |   |   |   |   |   |   |   |   |   |   |   |   |   |   m_d6d2n <= 0.004018
|   |   |   |   |   |   |   |   |   |   |   |   |   |   |   |   |   |   |   |   |   |   |   |   |   std_d2r <= 0.007098: Bajo (19.0)
|   |   |   |   |   |   |   |   |   |   |   |   |   |   |   |   |   |   |   |   |   |   |   |   |   std_d2r > 0.007098: Medio (3.0)
|   |   |   |   |   |   |   |   |   |   |   |   |   |   |   |   |   |   |   |   |   |   |   |   m_d6d2n > 0.004018: Medio (6.0/1.0)
|   |   |   |   |   |   |   |   |   |   |   |   |   |   |   |   |   |   |   |   |   m_d5d2n > 0.002701
|   |   |   |   |   |   |   |   |   |   |   |   |   |   |   |   |   |   |   |   |   |   v_d6n <= 0.20092
|   |   |   |   |   |   |   |   |   |   |   |   |   |   |   |   |   |   |   |   |   |   |   k_d8d1a <= 5.521259
|   |   |   |   |   |   |   |   |   |   |   |   |   |   |   |   |   |   |   |   |   |   |   |   k_d9a <= 6.287945
|   |   |   |   |   |   |   |   |   |   |   |   |   |   |   |   |   |   |   |   |   |   |   |   |   std_d3d2a <= 0.053466: Alto (2.0)
|   |   |   |   |   |   |   |   |   |   |   |   |   |   |   |   |   |   |   |   |   |   |   |   |   std_d3d2a > 0.053466: Medio (15.0/1.0)
|   |   |   |   |   |   |   |   |   |   |   |   |   |   |   |   |   |   |   |   |   |   |   |   k_d9a > 6.287945: Alto (4.0)
|   |   |   |   |   |   |   |   |   |   |   |   |   |   |   |   |   |   |   |   |   |   |   k_d8d1a > 5.521259
|   |   |   |   |   |   |   |   |   |   |   |   |   |   |   |   |   |   |   |   |   |   |   |   m_d3d1n <= -0.000245: Bajo (5.0/1.0)
|   |   |   |   |   |   |   |   |   |   |   |   |   |   |   |   |   |   |   |   |   |   |   |   m_d3d1n > -0.000245: Medio (2.0)
|   |   |   |   |   |   |   |   |   |   |   |   |   |   |   |   |   |   |   |   |   |   v_d6n > 0.20092: Bajo (5.0)
|   |   |   |   |   |   |   |   |   |   |   |   |   |   |   |   |   std_d3d2a > 0.09028
|   |   |   |   |   |   |   |   |   |   |   |   |   |   |   |   |   |   k_d8d1a <= 4.144744
|   |   |   |   |   |   |   |   |   |   |   |   |   |   |   |   |   |   |   k_d5a <= 1.996017: Medio (11.0/1.0)
|   |   |   |   |   |   |   |   |   |   |   |   |   |   |   |   |   |   |   k_d5a > 1.996017: Alto (3.0/1.0)
|   |   |   |   |   |   |   |   |   |   |   |   |   |   |   |   |   |   k_d8d1a > 4.144744
|   |   |   |   |   |   |   |   |   |   |   |   |   |   |   |   |   |   |   m_d1n <= 0.000047
|   |   |   |   |   |   |   |   |   |   |   |   |   |   |   |   |   |   |   |   std_d4d2a <= 0.708084
|   |   |   |   |   |   |   |   |   |   |   |   |   |   |   |   |   |   |   |   |   m_d4d2r <= -0.000386: Medio (7.0/2.0)
|   |   |   |   |   |   |   |   |   |   |   |   |   |   |   |   |   |   |   |   |   m_d4d2r > -0.000386: Bajo (6.0)
|   |   |   |   |   |   |   |   |   |   |   |   |   |   |   |   |   |   |   |   std_d4d2a > 0.708084
|   |   |   |   |   |   |   |   |   |   |   |   |   |   |   |   |   |   |   |   |   std_d7d2r <= 0.643764
|   |   |   |   |   |   |   |   |   |   |   |   |   |   |   |   |   |   |   |   |   |   std_d7d2r <= 0.574046: Bajo (8.0)
|   |   |   |   |   |   |   |   |   |   |   |   |   |   |   |   |   |   |   |   |   |   std_d7d2r > 0.574046: Medio (4.0/1.0)
|   |   |   |   |   |   |   |   |   |   |   |   |   |   |   |   |   |   |   |   |   std_d7d2r > 0.643764: Bajo (56.0)
|   |   |   |   |   |   |   |   |   |   |   |   |   |   |   |   |   |   |   m_d1n > 0.000047: Medio (4.0)
|   |   |   |   |   |   |   |   |   |   |   |   |   |   |   m_d4d2r > 0.000135
|   |   |   |   |   |   |   |   |   |   |   |   |   |   |   |   k_d8d1a <= 6.296546
|   |   |   |   |   |   |   |   |   |   |   |   |   |   |   |   |   m_d6r <= 0.042857
|   |   |   |   |   |   |   |   |   |   |   |   |   |   |   |   |   |   v_d6n <= 0.230119
|   |   |   |   |   |   |   |   |   |   |   |   |   |   |   |   |   |   |   m_d4d2r <= 0.000484
|   |   |   |   |   |   |   |   |   |   |   |   |   |   |   |   |   |   |   |   m_d9d1a <= 0.310869
|   |   |   |   |   |   |   |   |   |   |   |   |   |   |   |   |   |   |   |   |   std_d7a <= 0.173794: Bajo (2.0/1.0)
|   |   |   |   |   |   |   |   |   |   |   |   |   |   |   |   |   |   |   |   |   std_d7a > 0.173794: Medio (16.0)
|   |   |   |   |   |   |   |   |   |   |   |   |   |   |   |   |   |   |   |   m_d9d1a > 0.310869
|   |   |   |   |   |   |   |   |   |   |   |   |   |   |   |   |   |   |   |   |   k_d8d1a <= 5.082397
|   |   |   |   |   |   |   |   |   |   |   |   |   |   |   |   |   |   |   |   |   |   m_d1n <= -0.000039: Alto (2.0)
|   |   |   |   |   |   |   |   |   |   |   |   |   |   |   |   |   |   |   |   |   |   m_d1n > -0.000039
|   |   |   |   |   |   |   |   |   |   |   |   |   |   |   |   |   |   |   |   |   |   |   std_d6d2a <= 0.497442: Alto (4.0)
|   |   |   |   |   |   |   |   |   |   |   |   |   |   |   |   |   |   |   |   |   |   |   std_d6d2a > 0.497442
|   |   |   |   |   |   |   |   |   |   |   |   |   |   |   |   |   |   |   |   |   |   |   |   std_d7a <= 0.290443
|   |   |   |   |   |   |   |   |   |   |   |   |   |   |   |   |   |   |   |   |   |   |   |   |   m_d4d2r <= 0.000326: Alto (5.0)
|   |   |   |   |   |   |   |   |   |   |   |   |   |   |   |   |   |   |   |   |   |   |   |   |   m_d4d2r > 0.000326: Medio (5.0/1.0)
|   |   |   |   |   |   |   |   |   |   |   |   |   |   |   |   |   |   |   |   |   |   |   |   std_d7a > 0.290443: Medio (12.0/1.0)
|   |   |   |   |   |   |   |   |   |   |   |   |   |   |   |   |   |   |   |   |   k_d8d1a > 5.082397: Alto (10.0/1.0)
|   |   |   |   |   |   |   |   |   |   |   |   |   |   |   |   |   |   |   m_d4d2r > 0.000484: Bajo (3.0/1.0)
|   |   |   |   |   |   |   |   |   |   |   |   |   |   |   |   |   |   v_d6n > 0.230119
|   |   |   |   |   |   |   |   |   |   |   |   |   |   |   |   |   |   |   k_d5n <= 2.245874: Bajo (5.0)
|   |   |   |   |   |   |   |   |   |   |   |   |   |   |   |   |   |   |   k_d5n > 2.245874: Alto (2.0)
|   |   |   |   |   |   |   |   |   |   |   |   |   |   |   |   |   m_d6r > 0.042857: Bajo (4.0)
|   |   |   |   |   |   |   |   |   |   |   |   |   |   |   |   k_d8d1a > 6.296546
|   |   |   |   |   |   |   |   |   |   |   |   |   |   |   |   |   m_d5d2n <= 0.000538: Bajo (8.0)
|   |   |   |   |   |   |   |   |   |   |   |   |   |   |   |   |   m_d5d2n > 0.000538: Alto (2.0)
|   |   |   |   |   |   |   |   m_d2a > 0.003814
|   |   |   |   |   |   |   |   |   m_d5d2n <= -0.003615: Alto (10.0/1.0)
|   |   |   |   |   |   |   |   |   m_d5d2n > -0.003615
|   |   |   |   |   |   |   |   |   |   std_d6d2a <= 0.549323
|   |   |   |   |   |   |   |   |   |   |   m_d1n <= -0.000023: Bajo (2.0)
|   |   |   |   |   |   |   |   |   |   |   m_d1n > -0.000023: Alto (8.0/1.0)
|   |   |   |   |   |   |   |   |   |   std_d6d2a > 0.549323
|   |   |   |   |   |   |   |   |   |   |   k_d8d1a <= 3.909379: Medio (3.0)
|   |   |   |   |   |   |   |   |   |   |   k_d8d1a > 3.909379
|   |   |   |   |   |   |   |   |   |   |   |   k_d8d1a <= 5.441786: Bajo (43.0)
|   |   |   |   |   |   |   |   |   |   |   |   k_d8d1a > 5.441786
|   |   |   |   |   |   |   |   |   |   |   |   |   k_d1d2r <= 12.015348: Medio (2.0)
|   |   |   |   |   |   |   |   |   |   |   |   |   k_d1d2r > 12.015348: Bajo (2.0)
|   |   |   |   |   |   m_d4d2r > 0.000531
|   |   |   |   |   |   |   std_d4d2a <= 0.454064: Bajo (3.0/1.0)
|   |   |   |   |   |   |   std_d4d2a > 0.454064
|   |   |   |   |   |   |   |   m_d1n <= -0.000044: Alto (2.0)
|   |   |   |   |   |   |   |   m_d1n > -0.000044
|   |   |   |   |   |   |   |   |   m_d3d2n <= -0.000538: Alto (8.0/1.0)
|   |   |   |   |   |   |   |   |   m_d3d2n > -0.000538
|   |   |   |   |   |   |   |   |   |   m_d10r <= -0.005686: Alto (2.0)
|   |   |   |   |   |   |   |   |   |   m_d10r > -0.005686
|   |   |   |   |   |   |   |   |   |   |   std_d7a <= 0.556457
|   |   |   |   |   |   |   |   |   |   |   |   m_d4d2r <= 0.001203
|   |   |   |   |   |   |   |   |   |   |   |   |   m_d9d1n <= 0.000745: Alto (2.0)
|   |   |   |   |   |   |   |   |   |   |   |   |   m_d9d1n > 0.000745: Medio (21.0/2.0)
|   |   |   |   |   |   |   |   |   |   |   |   m_d4d2r > 0.001203: Alto (2.0)
|   |   |   |   |   |   |   |   |   |   |   std_d7a > 0.556457: Alto (3.0)
|   |   |   |   k_d5a > 5.991481
|   |   |   |   |   m_d9d1a <= 0.67995
|   |   |   |   |   |   m_d6r <= -0.005029: Medio (7.0/1.0)
|   |   |   |   |   |   m_d6r > -0.005029
|   |   |   |   |   |   |   m_d1n <= 0.000027
|   |   |   |   |   |   |   |   m_d6r <= 0.018018: Alto (21.0/1.0)
|   |   |   |   |   |   |   |   m_d6r > 0.018018
|   |   |   |   |   |   |   |   |   m_d6r <= 0.019314: Bajo (3.0)
|   |   |   |   |   |   |   |   |   m_d6r > 0.019314
|   |   |   |   |   |   |   |   |   |   k_d1d2r <= 160.809061: Alto (4.0)
|   |   |   |   |   |   |   |   |   |   k_d1d2r > 160.809061: Medio (2.0)
|   |   |   |   |   |   |   m_d1n > 0.000027: Medio (2.0/1.0)
|   |   |   |   |   m_d9d1a > 0.67995
|   |   |   |   |   |   m_d3d1n <= 0.000103
|   |   |   |   |   |   |   std_d6d2a <= 0.933476
|   |   |   |   |   |   |   |   k_d10r <= 7.482371
|   |   |   |   |   |   |   |   |   m_d4d2r <= 0.0001: Medio (31.0)
|   |   |   |   |   |   |   |   |   m_d4d2r > 0.0001: Alto (2.0)
|   |   |   |   |   |   |   |   k_d10r > 7.482371: Alto (3.0)
|   |   |   |   |   |   |   std_d6d2a > 0.933476: Alto (3.0)
|   |   |   |   |   |   m_d3d1n > 0.000103: Alto (4.0)
|   |   |   m_d6d2n > 0.0131
|   |   |   |   std_d6d2a <= 0.81153
|   |   |   |   |   k_d1d2r <= 22.165482: Bajo (2.0/1.0)
|   |   |   |   |   k_d1d2r > 22.165482
|   |   |   |   |   |   k_d8d1a <= 6.663232: Alto (25.0)
|   |   |   |   |   |   k_d8d1a > 6.663232: Medio (2.0)
|   |   |   |   std_d6d2a > 0.81153: Medio (4.0)
|   k_d2d1a > 225.778371
|   |   v_d6n <= 0.103427: Alto (21.0)
|   |   v_d6n > 0.103427
|   |   |   m_d3d2n <= 0.000092: Alto (2.0)
|   |   |   m_d3d2n > 0.000092: Medio (2.0)
std_d3d1n > 0.3682
|   std_d3d1n <= 0.403516
|   |   m_d3d2n <= -0.00075: Alto (7.0)
|   |   m_d3d2n > -0.00075
|   |   |   m_d3d2n <= 0.000683
|   |   |   |   v_d6n <= 0.109097: Alto (6.0)
|   |   |   |   v_d6n > 0.109097
|   |   |   |   |   std_d4d2a <= 0.734092
|   |   |   |   |   |   std_d3d1n <= 0.370362
|   |   |   |   |   |   |   std_d2r <= 0.009958: Medio (3.0/1.0)
|   |   |   |   |   |   |   std_d2r > 0.009958: Alto (7.0)
|   |   |   |   |   |   std_d3d1n > 0.370362
|   |   |   |   |   |   |   v_d6n <= 0.234464
|   |   |   |   |   |   |   |   m_d5d2n <= 0.005974
|   |   |   |   |   |   |   |   |   std_d3d1n <= 0.371132
|   |   |   |   |   |   |   |   |   |   k_d1d2r <= 10.239422: Medio (2.0)
|   |   |   |   |   |   |   |   |   |   k_d1d2r > 10.239422: Alto (2.0)
|   |   |   |   |   |   |   |   |   std_d3d1n > 0.371132: Medio (33.0)
|   |   |   |   |   |   |   |   m_d5d2n > 0.005974
|   |   |   |   |   |   |   |   |   m_d1n <= -0.000024: Alto (4.0/1.0)
|   |   |   |   |   |   |   |   |   m_d1n > -0.000024
|   |   |   |   |   |   |   |   |   |   v_d6n <= 0.149045
|   |   |   |   |   |   |   |   |   |   |   m_d3d1n <= -0.001054: Alto (3.0/1.0)
|   |   |   |   |   |   |   |   |   |   |   m_d3d1n > -0.001054: Medio (6.0)
|   |   |   |   |   |   |   |   |   |   v_d6n > 0.149045: Alto (3.0)
|   |   |   |   |   |   |   v_d6n > 0.234464
|   |   |   |   |   |   |   |   std_d4d2a <= 0.700636
|   |   |   |   |   |   |   |   |   k_d5a <= 1.834612: Medio (3.0)
|   |   |   |   |   |   |   |   |   k_d5a > 1.834612: Alto (9.0)
|   |   |   |   |   |   |   |   std_d4d2a > 0.700636: Medio (3.0)
|   |   |   |   |   std_d4d2a > 0.734092: Alto (5.0)
|   |   |   m_d3d2n > 0.000683: Alto (7.0)
|   std_d3d1n > 0.403516: Alto (20.0)

Number of Leaves  : 	259

Size of the tree : 	517


Weight: 2.9

J48 pruned tree
------------------

k_d8d1a <= 8.060858
|   m_d3d2n <= 0.000604
|   |   m_d9d1n <= -0.000937
|   |   |   std_d3d1n <= 0.134134
|   |   |   |   std_d2r <= 0.002885: Alto (5.8/1.06)
|   |   |   |   std_d2r > 0.002885: Medio (3.69)
|   |   |   std_d3d1n > 0.134134: Alto (24.96)
|   |   m_d9d1n > -0.000937
|   |   |   m_d3d1n <= 0.001101
|   |   |   |   m_d4d2r <= 0.000587
|   |   |   |   |   std_d7d2r <= 2.60099
|   |   |   |   |   |   m_d4d2r <= 0.000438
|   |   |   |   |   |   |   m_d6d2n <= 0.010818
|   |   |   |   |   |   |   |   std_d6d2a <= 1.543324
|   |   |   |   |   |   |   |   |   v_d2n <= 0.006774
|   |   |   |   |   |   |   |   |   |   k_d8d1a <= 4.351413
|   |   |   |   |   |   |   |   |   |   |   v_d6n <= 0.087353
|   |   |   |   |   |   |   |   |   |   |   |   k_d5a <= 6.43414: Bajo (3.17/0.53)
|   |   |   |   |   |   |   |   |   |   |   |   k_d5a > 6.43414: Alto (2.11)
|   |   |   |   |   |   |   |   |   |   |   v_d6n > 0.087353
|   |   |   |   |   |   |   |   |   |   |   |   m_d6d2n <= 0.002387: Medio (8.44/1.06)
|   |   |   |   |   |   |   |   |   |   |   |   m_d6d2n > 0.002387: Bajo (2.64/0.53)
|   |   |   |   |   |   |   |   |   |   k_d8d1a > 4.351413: Alto (46.59/11.08)
|   |   |   |   |   |   |   |   |   v_d2n > 0.006774
|   |   |   |   |   |   |   |   |   |   v_d6n <= 0.187263
|   |   |   |   |   |   |   |   |   |   |   m_d4d2r <= -0.001073
|   |   |   |   |   |   |   |   |   |   |   |   m_d10r <= -0.005616: Alto (9.58)
|   |   |   |   |   |   |   |   |   |   |   |   m_d10r > -0.005616
|   |   |   |   |   |   |   |   |   |   |   |   |   k_d8d1a <= 4.114223
|   |   |   |   |   |   |   |   |   |   |   |   |   |   m_d9d1n <= 0.001834: Alto (4.22/1.06)
|   |   |   |   |   |   |   |   |   |   |   |   |   |   m_d9d1n > 0.001834: Medio (39.29/1.58)
|   |   |   |   |   |   |   |   |   |   |   |   |   k_d8d1a > 4.114223
|   |   |   |   |   |   |   |   |   |   |   |   |   |   v_d6n <= 0.154117
|   |   |   |   |   |   |   |   |   |   |   |   |   |   |   m_d3d1n <= 0.000359: Alto (16.88/3.17)
|   |   |   |   |   |   |   |   |   |   |   |   |   |   |   m_d3d1n > 0.000359: Medio (2.64)
|   |   |   |   |   |   |   |   |   |   |   |   |   |   v_d6n > 0.154117: Medio (8.44/1.58)
|   |   |   |   |   |   |   |   |   |   |   m_d4d2r > -0.001073
|   |   |   |   |   |   |   |   |   |   |   |   std_d8a <= 0.212641
|   |   |   |   |   |   |   |   |   |   |   |   |   k_d8d1a <= 3.347574: Medio (39.9/1.58)
|   |   |   |   |   |   |   |   |   |   |   |   |   k_d8d1a > 3.347574: Alto (11.08/3.69)
|   |   |   |   |   |   |   |   |   |   |   |   std_d8a > 0.212641
|   |   |   |   |   |   |   |   |   |   |   |   |   m_d3d1n <= 0.000245
|   |   |   |   |   |   |   |   |   |   |   |   |   |   std_d7d2r <= 0.589866
|   |   |   |   |   |   |   |   |   |   |   |   |   |   |   k_d10r <= 7.370488
|   |   |   |   |   |   |   |   |   |   |   |   |   |   |   |   std_d7d2r <= 0.455068: Alto (4.75/0.53)
|   |   |   |   |   |   |   |   |   |   |   |   |   |   |   |   std_d7d2r > 0.455068
|   |   |   |   |   |   |   |   |   |   |   |   |   |   |   |   |   m_d4d2r <= -0.000714: Alto (3.17/1.06)
|   |   |   |   |   |   |   |   |   |   |   |   |   |   |   |   |   m_d4d2r > -0.000714: Bajo (53.09/5.28)
|   |   |   |   |   |   |   |   |   |   |   |   |   |   |   k_d10r > 7.370488: Medio (2.64)
|   |   |   |   |   |   |   |   |   |   |   |   |   |   std_d7d2r > 0.589866
|   |   |   |   |   |   |   |   |   |   |   |   |   |   |   v_d6n <= 0.072883
|   |   |   |   |   |   |   |   |   |   |   |   |   |   |   |   m_d9d1a <= 0.454495: Medio (44.12/2.11)
|   |   |   |   |   |   |   |   |   |   |   |   |   |   |   |   m_d9d1a > 0.454495: Alto (7.91/1.58)
|   |   |   |   |   |   |   |   |   |   |   |   |   |   |   v_d6n > 0.072883
|   |   |   |   |   |   |   |   |   |   |   |   |   |   |   |   k_d5n <= 4.254136
|   |   |   |   |   |   |   |   |   |   |   |   |   |   |   |   |   k_d8d1a <= 2.964011
|   |   |   |   |   |   |   |   |   |   |   |   |   |   |   |   |   |   k_d10r <= 4.711687
|   |   |   |   |   |   |   |   |   |   |   |   |   |   |   |   |   |   |   m_d6d2n <= -0.000146: Alto (2.11/0.53)
|   |   |   |   |   |   |   |   |   |   |   |   |   |   |   |   |   |   |   m_d6d2n > -0.000146: Bajo (8.44)
|   |   |   |   |   |   |   |   |   |   |   |   |   |   |   |   |   |   k_d10r > 4.711687
|   |   |   |   |   |   |   |   |   |   |   |   |   |   |   |   |   |   |   m_d9d1a <= 0.601219: Alto (13.8)
|   |   |   |   |   |   |   |   |   |   |   |   |   |   |   |   |   |   |   m_d9d1a > 0.601219
|   |   |   |   |   |   |   |   |   |   |   |   |   |   |   |   |   |   |   |   m_d6d2n <= 0.00251: Medio (6.86/1.58)
|   |   |   |   |   |   |   |   |   |   |   |   |   |   |   |   |   |   |   |   m_d6d2n > 0.00251: Alto (2.11)
|   |   |   |   |   |   |   |   |   |   |   |   |   |   |   |   |   k_d8d1a > 2.964011
|   |   |   |   |   |   |   |   |   |   |   |   |   |   |   |   |   |   k_d9a <= 2.379251
|   |   |   |   |   |   |   |   |   |   |   |   |   |   |   |   |   |   |   k_d10r <= 4.008522: Alto (12.75)
|   |   |   |   |   |   |   |   |   |   |   |   |   |   |   |   |   |   |   k_d10r > 4.008522
|   |   |   |   |   |   |   |   |   |   |   |   |   |   |   |   |   |   |   |   v_d2n <= 0.029392
|   |   |   |   |   |   |   |   |   |   |   |   |   |   |   |   |   |   |   |   |   k_d2d1a <= 69.097431: Bajo (13.72/2.64)
|   |   |   |   |   |   |   |   |   |   |   |   |   |   |   |   |   |   |   |   |   k_d2d1a > 69.097431: Medio (3.69/1.58)
|   |   |   |   |   |   |   |   |   |   |   |   |   |   |   |   |   |   |   |   v_d2n > 0.029392
|   |   |   |   |   |   |   |   |   |   |   |   |   |   |   |   |   |   |   |   |   m_d3d2n <= 0.000339
|   |   |   |   |   |   |   |   |   |   |   |   |   |   |   |   |   |   |   |   |   |   k_d5a <= 1.831323: Alto (2.11/0.53)
|   |   |   |   |   |   |   |   |   |   |   |   |   |   |   |   |   |   |   |   |   |   k_d5a > 1.831323: Medio (41.4/0.53)
|   |   |   |   |   |   |   |   |   |   |   |   |   |   |   |   |   |   |   |   |   m_d3d2n > 0.000339: Alto (2.64)
|   |   |   |   |   |   |   |   |   |   |   |   |   |   |   |   |   |   k_d9a > 2.379251
|   |   |   |   |   |   |   |   |   |   |   |   |   |   |   |   |   |   |   k_d10r <= 7.46843
|   |   |   |   |   |   |   |   |   |   |   |   |   |   |   |   |   |   |   |   m_d5d2n <= -0.003868
|   |   |   |   |   |   |   |   |   |   |   |   |   |   |   |   |   |   |   |   |   std_d3d2a <= 0.090934
|   |   |   |   |   |   |   |   |   |   |   |   |   |   |   |   |   |   |   |   |   |   std_d6d2a <= 0.377936: Bajo (4.22/1.06)
|   |   |   |   |   |   |   |   |   |   |   |   |   |   |   |   |   |   |   |   |   |   std_d6d2a > 0.377936
|   |   |   |   |   |   |   |   |   |   |   |   |   |   |   |   |   |   |   |   |   |   |   m_d5d2n <= -0.004296
|   |   |   |   |   |   |   |   |   |   |   |   |   |   |   |   |   |   |   |   |   |   |   |   m_d3d1n <= -0.000437
|   |   |   |   |   |   |   |   |   |   |   |   |   |   |   |   |   |   |   |   |   |   |   |   |   m_d3d2n <= -0.000235
|   |   |   |   |   |   |   |   |   |   |   |   |   |   |   |   |   |   |   |   |   |   |   |   |   |   m_d3d2a <= 0.055974: Alto (3.17/1.06)
|   |   |   |   |   |   |   |   |   |   |   |   |   |   |   |   |   |   |   |   |   |   |   |   |   |   m_d3d2a > 0.055974: Bajo (2.64/0.53)
|   |   |   |   |   |   |   |   |   |   |   |   |   |   |   |   |   |   |   |   |   |   |   |   |   m_d3d2n > -0.000235: Bajo (8.44/2.11)
|   |   |   |   |   |   |   |   |   |   |   |   |   |   |   |   |   |   |   |   |   |   |   |   m_d3d1n > -0.000437
|   |   |   |   |   |   |   |   |   |   |   |   |   |   |   |   |   |   |   |   |   |   |   |   |   m_d3d2n <= 0.000199: Medio (34.02)
|   |   |   |   |   |   |   |   |   |   |   |   |   |   |   |   |   |   |   |   |   |   |   |   |   m_d3d2n > 0.000199
|   |   |   |   |   |   |   |   |   |   |   |   |   |   |   |   |   |   |   |   |   |   |   |   |   |   m_d2a <= 0.001922: Bajo (13.27/0.53)
|   |   |   |   |   |   |   |   |   |   |   |   |   |   |   |   |   |   |   |   |   |   |   |   |   |   m_d2a > 0.001922
|   |   |   |   |   |   |   |   |   |   |   |   |   |   |   |   |   |   |   |   |   |   |   |   |   |   |   std_d3d2a <= 0.08793: Alto (2.64/0.53)
|   |   |   |   |   |   |   |   |   |   |   |   |   |   |   |   |   |   |   |   |   |   |   |   |   |   |   std_d3d2a > 0.08793: Medio (2.64)
|   |   |   |   |   |   |   |   |   |   |   |   |   |   |   |   |   |   |   |   |   |   |   m_d5d2n > -0.004296: Medio (42.01/1.06)
|   |   |   |   |   |   |   |   |   |   |   |   |   |   |   |   |   |   |   |   |   std_d3d2a > 0.090934
|   |   |   |   |   |   |   |   |   |   |   |   |   |   |   |   |   |   |   |   |   |   std_d4d2a <= 0.711451: Alto (3.17/0.53)
|   |   |   |   |   |   |   |   |   |   |   |   |   |   |   |   |   |   |   |   |   |   std_d4d2a > 0.711451: Bajo (12.13/1.06)
|   |   |   |   |   |   |   |   |   |   |   |   |   |   |   |   |   |   |   |   m_d5d2n > -0.003868
|   |   |   |   |   |   |   |   |   |   |   |   |   |   |   |   |   |   |   |   |   m_d4d2r <= -0.000784
|   |   |   |   |   |   |   |   |   |   |   |   |   |   |   |   |   |   |   |   |   |   m_d1n <= -0.000074: Bajo (9.58)
|   |   |   |   |   |   |   |   |   |   |   |   |   |   |   |   |   |   |   |   |   |   m_d1n > -0.000074
|   |   |   |   |   |   |   |   |   |   |   |   |   |   |   |   |   |   |   |   |   |   |   k_d9a <= 7.323973
|   |   |   |   |   |   |   |   |   |   |   |   |   |   |   |   |   |   |   |   |   |   |   |   std_d8a <= 0.327919: Alto (4.75/0.53)
|   |   |   |   |   |   |   |   |   |   |   |   |   |   |   |   |   |   |   |   |   |   |   |   std_d8a > 0.327919
|   |   |   |   |   |   |   |   |   |   |   |   |   |   |   |   |   |   |   |   |   |   |   |   |   k_d2d1a <= 14.928976: Bajo (2.11/1.06)
|   |   |   |   |   |   |   |   |   |   |   |   |   |   |   |   |   |   |   |   |   |   |   |   |   k_d2d1a > 14.928976
|   |   |   |   |   |   |   |   |   |   |   |   |   |   |   |   |   |   |   |   |   |   |   |   |   |   k_d8d1a <= 6.429894: Medio (52.56/2.11)
|   |   |   |   |   |   |   |   |   |   |   |   |   |   |   |   |   |   |   |   |   |   |   |   |   |   k_d8d1a > 6.429894: Alto (2.11/0.53)
|   |   |   |   |   |   |   |   |   |   |   |   |   |   |   |   |   |   |   |   |   |   |   k_d9a > 7.323973
|   |   |   |   |   |   |   |   |   |   |   |   |   |   |   |   |   |   |   |   |   |   |   |   k_d1d2r <= 15.587108: Alto (9.58)
|   |   |   |   |   |   |   |   |   |   |   |   |   |   |   |   |   |   |   |   |   |   |   |   k_d1d2r > 15.587108: Bajo (2.11/0.53)
|   |   |   |   |   |   |   |   |   |   |   |   |   |   |   |   |   |   |   |   |   m_d4d2r > -0.000784
|   |   |   |   |   |   |   |   |   |   |   |   |   |   |   |   |   |   |   |   |   |   m_d1n <= 0.000068
|   |   |   |   |   |   |   |   |   |   |   |   |   |   |   |   |   |   |   |   |   |   |   std_d8a <= 0.694288
|   |   |   |   |   |   |   |   |   |   |   |   |   |   |   |   |   |   |   |   |   |   |   |   m_d9d1a <= 0.396818
|   |   |   |   |   |   |   |   |   |   |   |   |   |   |   |   |   |   |   |   |   |   |   |   |   std_d6d2a <= 0.445477: Alto (4.75/0.53)
|   |   |   |   |   |   |   |   |   |   |   |   |   |   |   |   |   |   |   |   |   |   |   |   |   std_d6d2a > 0.445477
|   |   |   |   |   |   |   |   |   |   |   |   |   |   |   |   |   |   |   |   |   |   |   |   |   |   m_d6r <= 0.006386
|   |   |   |   |   |   |   |   |   |   |   |   |   |   |   |   |   |   |   |   |   |   |   |   |   |   |   m_d1n <= -0.000049: Bajo (2.64)
|   |   |   |   |   |   |   |   |   |   |   |   |   |   |   |   |   |   |   |   |   |   |   |   |   |   |   m_d1n > -0.000049: Alto (3.69/1.06)
|   |   |   |   |   |   |   |   |   |   |   |   |   |   |   |   |   |   |   |   |   |   |   |   |   |   m_d6r > 0.006386: Bajo (86.41/3.69)
|   |   |   |   |   |   |   |   |   |   |   |   |   |   |   |   |   |   |   |   |   |   |   |   m_d9d1a > 0.396818
|   |   |   |   |   |   |   |   |   |   |   |   |   |   |   |   |   |   |   |   |   |   |   |   |   k_d5n <= 2.171817
|   |   |   |   |   |   |   |   |   |   |   |   |   |   |   |   |   |   |   |   |   |   |   |   |   |   v_d2n <= 0.025892: Bajo (3.17/1.06)
|   |   |   |   |   |   |   |   |   |   |   |   |   |   |   |   |   |   |   |   |   |   |   |   |   |   v_d2n > 0.025892: Medio (15.3/3.69)
|   |   |   |   |   |   |   |   |   |   |   |   |   |   |   |   |   |   |   |   |   |   |   |   |   k_d5n > 2.171817
|   |   |   |   |   |   |   |   |   |   |   |   |   |   |   |   |   |   |   |   |   |   |   |   |   |   m_d4d2r <= -0.000618
|   |   |   |   |   |   |   |   |   |   |   |   |   |   |   |   |   |   |   |   |   |   |   |   |   |   |   m_d1d1r <= -0.000032
|   |   |   |   |   |   |   |   |   |   |   |   |   |   |   |   |   |   |   |   |   |   |   |   |   |   |   |   std_d2r <= 0.008492: Medio (2.11/0.53)
|   |   |   |   |   |   |   |   |   |   |   |   |   |   |   |   |   |   |   |   |   |   |   |   |   |   |   |   std_d2r > 0.008492: Bajo (2.64)
|   |   |   |   |   |   |   |   |   |   |   |   |   |   |   |   |   |   |   |   |   |   |   |   |   |   |   m_d1d1r > -0.000032
|   |   |   |   |   |   |   |   |   |   |   |   |   |   |   |   |   |   |   |   |   |   |   |   |   |   |   |   std_d7d2r <= 1.108906: Medio (4.22)
|   |   |   |   |   |   |   |   |   |   |   |   |   |   |   |   |   |   |   |   |   |   |   |   |   |   |   |   std_d7d2r > 1.108906
|   |   |   |   |   |   |   |   |   |   |   |   |   |   |   |   |   |   |   |   |   |   |   |   |   |   |   |   |   m_d4d2r <= -0.000653: Alto (4.75/0.53)
|   |   |   |   |   |   |   |   |   |   |   |   |   |   |   |   |   |   |   |   |   |   |   |   |   |   |   |   |   m_d4d2r > -0.000653: Bajo (2.64/1.06)
|   |   |   |   |   |   |   |   |   |   |   |   |   |   |   |   |   |   |   |   |   |   |   |   |   |   m_d4d2r > -0.000618
|   |   |   |   |   |   |   |   |   |   |   |   |   |   |   |   |   |   |   |   |   |   |   |   |   |   |   std_d7a <= 0.267274
|   |   |   |   |   |   |   |   |   |   |   |   |   |   |   |   |   |   |   |   |   |   |   |   |   |   |   |   std_d7a <= 0.219232: Alto (2.64)
|   |   |   |   |   |   |   |   |   |   |   |   |   |   |   |   |   |   |   |   |   |   |   |   |   |   |   |   std_d7a > 0.219232: Bajo (66.28/4.22)
|   |   |   |   |   |   |   |   |   |   |   |   |   |   |   |   |   |   |   |   |   |   |   |   |   |   |   std_d7a > 0.267274
|   |   |   |   |   |   |   |   |   |   |   |   |   |   |   |   |   |   |   |   |   |   |   |   |   |   |   |   m_d3d2n <= -0.000109
|   |   |   |   |   |   |   |   |   |   |   |   |   |   |   |   |   |   |   |   |   |   |   |   |   |   |   |   |   std_d8a <= 0.252602: Bajo (11.69/0.53)
|   |   |   |   |   |   |   |   |   |   |   |   |   |   |   |   |   |   |   |   |   |   |   |   |   |   |   |   |   std_d8a > 0.252602
|   |   |   |   |   |   |   |   |   |   |   |   |   |   |   |   |   |   |   |   |   |   |   |   |   |   |   |   |   |   m_d6r <= 0.020543
|   |   |   |   |   |   |   |   |   |   |   |   |   |   |   |   |   |   |   |   |   |   |   |   |   |   |   |   |   |   |   m_d3d1n <= -0.000455: Alto (3.17)
|   |   |   |   |   |   |   |   |   |   |   |   |   |   |   |   |   |   |   |   |   |   |   |   |   |   |   |   |   |   |   m_d3d1n > -0.000455: Bajo (4.22/1.06)
|   |   |   |   |   |   |   |   |   |   |   |   |   |   |   |   |   |   |   |   |   |   |   |   |   |   |   |   |   |   m_d6r > 0.020543: Medio (48.09/18.99)
|   |   |   |   |   |   |   |   |   |   |   |   |   |   |   |   |   |   |   |   |   |   |   |   |   |   |   |   m_d3d2n > -0.000109
|   |   |   |   |   |   |   |   |   |   |   |   |   |   |   |   |   |   |   |   |   |   |   |   |   |   |   |   |   m_d3d2n <= 0.000156
|   |   |   |   |   |   |   |   |   |   |   |   |   |   |   |   |   |   |   |   |   |   |   |   |   |   |   |   |   |   k_d5n <= 3.320698: Bajo (40.79/2.11)
|   |   |   |   |   |   |   |   |   |   |   |   |   |   |   |   |   |   |   |   |   |   |   |   |   |   |   |   |   |   k_d5n > 3.320698
|   |   |   |   |   |   |   |   |   |   |   |   |   |   |   |   |   |   |   |   |   |   |   |   |   |   |   |   |   |   |   k_d10r <= 4.86225: Bajo (3.17/0.53)
|   |   |   |   |   |   |   |   |   |   |   |   |   |   |   |   |   |   |   |   |   |   |   |   |   |   |   |   |   |   |   k_d10r > 4.86225: Medio (3.17)
|   |   |   |   |   |   |   |   |   |   |   |   |   |   |   |   |   |   |   |   |   |   |   |   |   |   |   |   |   m_d3d2n > 0.000156
|   |   |   |   |   |   |   |   |   |   |   |   |   |   |   |   |   |   |   |   |   |   |   |   |   |   |   |   |   |   m_d3d2n <= 0.000299
|   |   |   |   |   |   |   |   |   |   |   |   |   |   |   |   |   |   |   |   |   |   |   |   |   |   |   |   |   |   |   k_d5a <= 2.094697: Bajo (12.13)
|   |   |   |   |   |   |   |   |   |   |   |   |   |   |   |   |   |   |   |   |   |   |   |   |   |   |   |   |   |   |   k_d5a > 2.094697
|   |   |   |   |   |   |   |   |   |   |   |   |   |   |   |   |   |   |   |   |   |   |   |   |   |   |   |   |   |   |   |   m_d3d1n <= -0.00012
|   |   |   |   |   |   |   |   |   |   |   |   |   |   |   |   |   |   |   |   |   |   |   |   |   |   |   |   |   |   |   |   |   m_d1n <= -0.000017: Bajo (2.11/0.53)
|   |   |   |   |   |   |   |   |   |   |   |   |   |   |   |   |   |   |   |   |   |   |   |   |   |   |   |   |   |   |   |   |   m_d1n > -0.000017: Alto (7.91/2.11)
|   |   |   |   |   |   |   |   |   |   |   |   |   |   |   |   |   |   |   |   |   |   |   |   |   |   |   |   |   |   |   |   m_d3d1n > -0.00012
|   |   |   |   |   |   |   |   |   |   |   |   |   |   |   |   |   |   |   |   |   |   |   |   |   |   |   |   |   |   |   |   |   m_d6d2n <= 0.000379: Bajo (6.86)
|   |   |   |   |   |   |   |   |   |   |   |   |   |   |   |   |   |   |   |   |   |   |   |   |   |   |   |   |   |   |   |   |   m_d6d2n > 0.000379
|   |   |   |   |   |   |   |   |   |   |   |   |   |   |   |   |   |   |   |   |   |   |   |   |   |   |   |   |   |   |   |   |   |   m_d1n <= -0.000012: Bajo (2.64)
|   |   |   |   |   |   |   |   |   |   |   |   |   |   |   |   |   |   |   |   |   |   |   |   |   |   |   |   |   |   |   |   |   |   m_d1n > -0.000012: Medio (5.28/2.11)
|   |   |   |   |   |   |   |   |   |   |   |   |   |   |   |   |   |   |   |   |   |   |   |   |   |   |   |   |   |   m_d3d2n > 0.000299
|   |   |   |   |   |   |   |   |   |   |   |   |   |   |   |   |   |   |   |   |   |   |   |   |   |   |   |   |   |   |   k_d9a <= 4.297562: Bajo (4.75/1.58)
|   |   |   |   |   |   |   |   |   |   |   |   |   |   |   |   |   |   |   |   |   |   |   |   |   |   |   |   |   |   |   k_d9a > 4.297562: Medio (3.69/1.06)
|   |   |   |   |   |   |   |   |   |   |   |   |   |   |   |   |   |   |   |   |   |   |   std_d8a > 0.694288
|   |   |   |   |   |   |   |   |   |   |   |   |   |   |   |   |   |   |   |   |   |   |   |   m_d2a <= 0.001175
|   |   |   |   |   |   |   |   |   |   |   |   |   |   |   |   |   |   |   |   |   |   |   |   |   std_d8a <= 0.76369: Bajo (2.64/0.53)
|   |   |   |   |   |   |   |   |   |   |   |   |   |   |   |   |   |   |   |   |   |   |   |   |   std_d8a > 0.76369: Alto (2.11)
|   |   |   |   |   |   |   |   |   |   |   |   |   |   |   |   |   |   |   |   |   |   |   |   m_d2a > 0.001175
|   |   |   |   |   |   |   |   |   |   |   |   |   |   |   |   |   |   |   |   |   |   |   |   |   m_d10r <= -0.000457: Medio (3.69)
|   |   |   |   |   |   |   |   |   |   |   |   |   |   |   |   |   |   |   |   |   |   |   |   |   m_d10r > -0.000457
|   |   |   |   |   |   |   |   |   |   |   |   |   |   |   |   |   |   |   |   |   |   |   |   |   |   k_d8d1a <= 5.056099
|   |   |   |   |   |   |   |   |   |   |   |   |   |   |   |   |   |   |   |   |   |   |   |   |   |   |   std_d2r <= 0.007839: Alto (2.11/0.53)
|   |   |   |   |   |   |   |   |   |   |   |   |   |   |   |   |   |   |   |   |   |   |   |   |   |   |   std_d2r > 0.007839: Bajo (3.17)
|   |   |   |   |   |   |   |   |   |   |   |   |   |   |   |   |   |   |   |   |   |   |   |   |   |   k_d8d1a > 5.056099
|   |   |   |   |   |   |   |   |   |   |   |   |   |   |   |   |   |   |   |   |   |   |   |   |   |   |   m_d1d1r <= -0.000034
|   |   |   |   |   |   |   |   |   |   |   |   |   |   |   |   |   |   |   |   |   |   |   |   |   |   |   |   m_d4d2r <= -0.00034
|   |   |   |   |   |   |   |   |   |   |   |   |   |   |   |   |   |   |   |   |   |   |   |   |   |   |   |   |   v_d6n <= 0.126381: Medio (2.11)
|   |   |   |   |   |   |   |   |   |   |   |   |   |   |   |   |   |   |   |   |   |   |   |   |   |   |   |   |   v_d6n > 0.126381: Bajo (6.33/1.58)
|   |   |   |   |   |   |   |   |   |   |   |   |   |   |   |   |   |   |   |   |   |   |   |   |   |   |   |   m_d4d2r > -0.00034: Medio (10.02/1.06)
|   |   |   |   |   |   |   |   |   |   |   |   |   |   |   |   |   |   |   |   |   |   |   |   |   |   |   m_d1d1r > -0.000034: Medio (5.8/1.58)
|   |   |   |   |   |   |   |   |   |   |   |   |   |   |   |   |   |   |   |   |   |   m_d1n > 0.000068
|   |   |   |   |   |   |   |   |   |   |   |   |   |   |   |   |   |   |   |   |   |   |   k_d2d1a <= 26.764015: Medio (11.69)
|   |   |   |   |   |   |   |   |   |   |   |   |   |   |   |   |   |   |   |   |   |   |   k_d2d1a > 26.764015: Bajo (11.69)
|   |   |   |   |   |   |   |   |   |   |   |   |   |   |   |   |   |   |   k_d10r > 7.46843
|   |   |   |   |   |   |   |   |   |   |   |   |   |   |   |   |   |   |   |   k_d9a <= 3.21968
|   |   |   |   |   |   |   |   |   |   |   |   |   |   |   |   |   |   |   |   |   k_d5a <= 2.248786
|   |   |   |   |   |   |   |   |   |   |   |   |   |   |   |   |   |   |   |   |   |   v_d6n <= 0.093449: Bajo (5.8)
|   |   |   |   |   |   |   |   |   |   |   |   |   |   |   |   |   |   |   |   |   |   v_d6n > 0.093449: Alto (2.64/0.53)
|   |   |   |   |   |   |   |   |   |   |   |   |   |   |   |   |   |   |   |   |   k_d5a > 2.248786
|   |   |   |   |   |   |   |   |   |   |   |   |   |   |   |   |   |   |   |   |   |   std_d7a <= 0.286548: Medio (2.64)
|   |   |   |   |   |   |   |   |   |   |   |   |   |   |   |   |   |   |   |   |   |   std_d7a > 0.286548: Alto (2.64)
|   |   |   |   |   |   |   |   |   |   |   |   |   |   |   |   |   |   |   |   k_d9a > 3.21968
|   |   |   |   |   |   |   |   |   |   |   |   |   |   |   |   |   |   |   |   |   m_d3d1n <= -0.000671
|   |   |   |   |   |   |   |   |   |   |   |   |   |   |   |   |   |   |   |   |   |   m_d1n <= 0.000024
|   |   |   |   |   |   |   |   |   |   |   |   |   |   |   |   |   |   |   |   |   |   |   std_d6d2a <= 0.572327: Alto (2.64/0.53)
|   |   |   |   |   |   |   |   |   |   |   |   |   |   |   |   |   |   |   |   |   |   |   std_d6d2a > 0.572327: Medio (6.86/1.58)
|   |   |   |   |   |   |   |   |   |   |   |   |   |   |   |   |   |   |   |   |   |   m_d1n > 0.000024: Alto (2.11/0.53)
|   |   |   |   |   |   |   |   |   |   |   |   |   |   |   |   |   |   |   |   |   m_d3d1n > -0.000671: Medio (32.35/1.06)
|   |   |   |   |   |   |   |   |   |   |   |   |   |   |   |   k_d5n > 4.254136
|   |   |   |   |   |   |   |   |   |   |   |   |   |   |   |   |   m_d6r <= 0.022421
|   |   |   |   |   |   |   |   |   |   |   |   |   |   |   |   |   |   k_d9a <= 3.98647: Alto (23.38/0.53)
|   |   |   |   |   |   |   |   |   |   |   |   |   |   |   |   |   |   k_d9a > 3.98647
|   |   |   |   |   |   |   |   |   |   |   |   |   |   |   |   |   |   |   k_d10r <= 4.720696: Alto (3.69/1.06)
|   |   |   |   |   |   |   |   |   |   |   |   |   |   |   |   |   |   |   k_d10r > 4.720696: Bajo (6.86/1.06)
|   |   |   |   |   |   |   |   |   |   |   |   |   |   |   |   |   m_d6r > 0.022421
|   |   |   |   |   |   |   |   |   |   |   |   |   |   |   |   |   |   std_d6d2a <= 0.560641: Medio (15.91/0.53)
|   |   |   |   |   |   |   |   |   |   |   |   |   |   |   |   |   |   std_d6d2a > 0.560641
|   |   |   |   |   |   |   |   |   |   |   |   |   |   |   |   |   |   |   m_d6d2n <= 0.001407: Bajo (3.17/0.53)
|   |   |   |   |   |   |   |   |   |   |   |   |   |   |   |   |   |   |   m_d6d2n > 0.001407: Medio (2.11/0.53)
|   |   |   |   |   |   |   |   |   |   |   |   |   m_d3d1n > 0.000245
|   |   |   |   |   |   |   |   |   |   |   |   |   |   k_d10r <= 4.577934
|   |   |   |   |   |   |   |   |   |   |   |   |   |   |   m_d5d2n <= -0.0004: Bajo (5.28/0.53)
|   |   |   |   |   |   |   |   |   |   |   |   |   |   |   m_d5d2n > -0.0004: Alto (2.11/0.53)
|   |   |   |   |   |   |   |   |   |   |   |   |   |   k_d10r > 4.577934
|   |   |   |   |   |   |   |   |   |   |   |   |   |   |   k_d1d2r <= 13.521315: Bajo (3.69/1.58)
|   |   |   |   |   |   |   |   |   |   |   |   |   |   |   k_d1d2r > 13.521315: Medio (42.98/0.53)
|   |   |   |   |   |   |   |   |   |   v_d6n > 0.187263
|   |   |   |   |   |   |   |   |   |   |   k_d10r <= 5.406356
|   |   |   |   |   |   |   |   |   |   |   |   k_d5n <= 3.028403: Bajo (31.29/0.53)
|   |   |   |   |   |   |   |   |   |   |   |   k_d5n > 3.028403: Medio (3.17/1.58)
|   |   |   |   |   |   |   |   |   |   |   k_d10r > 5.406356
|   |   |   |   |   |   |   |   |   |   |   |   m_d9d1n <= 0.000851
|   |   |   |   |   |   |   |   |   |   |   |   |   std_d4d2a <= 0.678769: Medio (13.27)
|   |   |   |   |   |   |   |   |   |   |   |   |   std_d4d2a > 0.678769: Alto (4.22)
|   |   |   |   |   |   |   |   |   |   |   |   m_d9d1n > 0.000851
|   |   |   |   |   |   |   |   |   |   |   |   |   std_d3d2a <= 0.087396
|   |   |   |   |   |   |   |   |   |   |   |   |   |   m_d3d2a <= 0.058269: Alto (52.92/11.08)
|   |   |   |   |   |   |   |   |   |   |   |   |   |   m_d3d2a > 0.058269: Medio (8.44/1.06)
|   |   |   |   |   |   |   |   |   |   |   |   |   std_d3d2a > 0.087396
|   |   |   |   |   |   |   |   |   |   |   |   |   |   m_d3d1n <= -0.000806
|   |   |   |   |   |   |   |   |   |   |   |   |   |   |   m_d3d1n <= -0.001094
|   |   |   |   |   |   |   |   |   |   |   |   |   |   |   |   m_d3d2a <= 0.067604: Medio (2.11/0.53)
|   |   |   |   |   |   |   |   |   |   |   |   |   |   |   |   m_d3d2a > 0.067604: Alto (2.64/0.53)
|   |   |   |   |   |   |   |   |   |   |   |   |   |   |   m_d3d1n > -0.001094
|   |   |   |   |   |   |   |   |   |   |   |   |   |   |   |   v_d6n <= 0.20466: Bajo (3.69/1.06)
|   |   |   |   |   |   |   |   |   |   |   |   |   |   |   |   v_d6n > 0.20466: Alto (27.07/1.58)
|   |   |   |   |   |   |   |   |   |   |   |   |   |   m_d3d1n > -0.000806
|   |   |   |   |   |   |   |   |   |   |   |   |   |   |   std_d2r <= 0.0083: Alto (3.69/1.06)
|   |   |   |   |   |   |   |   |   |   |   |   |   |   |   std_d2r > 0.0083
|   |   |   |   |   |   |   |   |   |   |   |   |   |   |   |   m_d6d2n <= 0.004881
|   |   |   |   |   |   |   |   |   |   |   |   |   |   |   |   |   m_d4d2r <= -0.00082: Alto (2.64/0.53)
|   |   |   |   |   |   |   |   |   |   |   |   |   |   |   |   |   m_d4d2r > -0.00082: Bajo (30.15/1.58)
|   |   |   |   |   |   |   |   |   |   |   |   |   |   |   |   m_d6d2n > 0.004881: Medio (2.11/0.53)
|   |   |   |   |   |   |   |   std_d6d2a > 1.543324
|   |   |   |   |   |   |   |   |   v_d6n <= 0.123825
|   |   |   |   |   |   |   |   |   |   v_d2n <= 0.029738
|   |   |   |   |   |   |   |   |   |   |   m_d2a <= 0.00223: Alto (15.38/1.06)
|   |   |   |   |   |   |   |   |   |   |   m_d2a > 0.00223: Bajo (8.97)
|   |   |   |   |   |   |   |   |   |   v_d2n > 0.029738
|   |   |   |   |   |   |   |   |   |   |   std_d3d2a <= 0.089864
|   |   |   |   |   |   |   |   |   |   |   |   k_d5a <= 2.098303: Alto (42.01/1.06)
|   |   |   |   |   |   |   |   |   |   |   |   k_d5a > 2.098303
|   |   |   |   |   |   |   |   |   |   |   |   |   std_d8a <= 0.403286: Alto (13.8/1.06)
|   |   |   |   |   |   |   |   |   |   |   |   |   std_d8a > 0.403286: Medio (3.17/0.53)
|   |   |   |   |   |   |   |   |   |   |   std_d3d2a > 0.089864
|   |   |   |   |   |   |   |   |   |   |   |   std_d3d2a <= 0.093689: Bajo (4.22/1.58)
|   |   |   |   |   |   |   |   |   |   |   |   std_d3d2a > 0.093689: Alto (4.22)
|   |   |   |   |   |   |   |   |   v_d6n > 0.123825
|   |   |   |   |   |   |   |   |   |   m_d3d1n <= 0.000125
|   |   |   |   |   |   |   |   |   |   |   std_d7a <= 0.321839: Medio (24.96/1.06)
|   |   |   |   |   |   |   |   |   |   |   std_d7a > 0.321839: Alto (6.33/0.53)
|   |   |   |   |   |   |   |   |   |   m_d3d1n > 0.000125: Bajo (2.11)
|   |   |   |   |   |   |   m_d6d2n > 0.010818
|   |   |   |   |   |   |   |   std_d2r <= 0.005069
|   |   |   |   |   |   |   |   |   m_d6d2n <= 0.014907: Medio (3.69)
|   |   |   |   |   |   |   |   |   m_d6d2n > 0.014907: Alto (2.64/0.53)
|   |   |   |   |   |   |   |   std_d2r > 0.005069
|   |   |   |   |   |   |   |   |   m_d2a <= 0.002259: Alto (31.29/1.58)
|   |   |   |   |   |   |   |   |   m_d2a > 0.002259
|   |   |   |   |   |   |   |   |   |   m_d4d2r <= -0.000273: Alto (3.17/1.06)
|   |   |   |   |   |   |   |   |   |   m_d4d2r > -0.000273: Bajo (2.11)
|   |   |   |   |   |   m_d4d2r > 0.000438
|   |   |   |   |   |   |   k_d8d1a <= 6.061825: Medio (48.34/4.75)
|   |   |   |   |   |   |   k_d8d1a > 6.061825: Bajo (3.17/0.53)
|   |   |   |   |   std_d7d2r > 2.60099
|   |   |   |   |   |   m_d6r <= 0.024233: Alto (47.2/4.75)
|   |   |   |   |   |   m_d6r > 0.024233: Medio (12.75/0.53)
|   |   |   |   m_d4d2r > 0.000587
|   |   |   |   |   m_d1n <= 0.000051
|   |   |   |   |   |   m_d9d1n <= 0.001344: Medio (14.77/5.8)
|   |   |   |   |   |   m_d9d1n > 0.001344
|   |   |   |   |   |   |   m_d6d2n <= -0.00116
|   |   |   |   |   |   |   |   m_d4d2r <= 0.000923
|   |   |   |   |   |   |   |   |   m_d5d2n <= -0.001574: Alto (2.11/0.53)
|   |   |   |   |   |   |   |   |   m_d5d2n > -0.001574: Medio (3.17)
|   |   |   |   |   |   |   |   m_d4d2r > 0.000923: Alto (3.17)
|   |   |   |   |   |   |   m_d6d2n > -0.00116
|   |   |   |   |   |   |   |   m_d9d1a <= 0.304167: Medio (2.11/0.53)
|   |   |   |   |   |   |   |   m_d9d1a > 0.304167: Alto (34.54)
|   |   |   |   |   m_d1n > 0.000051
|   |   |   |   |   |   m_d1n <= 0.000066: Medio (9.58)
|   |   |   |   |   |   m_d1n > 0.000066: Alto (2.11/0.53)
|   |   |   m_d3d1n > 0.001101
|   |   |   |   std_d8a <= 0.55018
|   |   |   |   |   k_d10r <= 4.677526: Bajo (5.8)
|   |   |   |   |   k_d10r > 4.677526: Medio (3.69/2.11)
|   |   |   |   std_d8a > 0.55018
|   |   |   |   |   m_d3d2a <= 0.054813: Alto (30.85)
|   |   |   |   |   m_d3d2a > 0.054813: Bajo (2.64)
|   m_d3d2n > 0.000604: Alto (27.52/3.69)
k_d8d1a > 8.060858
|   m_d3d1n <= -0.000236
|   |   m_d4d2r <= -0.000417: Alto (2.11)
|   |   m_d4d2r > -0.000417: Bajo (2.64/0.53)
|   m_d3d1n > -0.000236: Alto (47.29/0.53)

Number of Leaves  : 	157

Size of the tree : 	313


Weight: 2.28

J48 pruned tree
------------------

m_d3d1n <= 0.001101
|   m_d4d2r <= 0.000587
|   |   std_d2r <= 0.010551
|   |   |   m_d9d1n <= 0.00876
|   |   |   |   m_d9d1n <= 0.006923
|   |   |   |   |   k_d10r <= 3.176219
|   |   |   |   |   |   k_d10r <= 3.172908: Alto (22.56/0.87)
|   |   |   |   |   |   k_d10r > 3.172908: Medio (3.13)
|   |   |   |   |   k_d10r > 3.176219
|   |   |   |   |   |   m_d3d2a <= 0.071816
|   |   |   |   |   |   |   std_d7a <= 0.218078
|   |   |   |   |   |   |   |   m_d3d1n <= -0.000914: Alto (15.31/1.16)
|   |   |   |   |   |   |   |   m_d3d1n > -0.000914
|   |   |   |   |   |   |   |   |   m_d6r <= 0.029602
|   |   |   |   |   |   |   |   |   |   m_d6d2n <= 0.003178
|   |   |   |   |   |   |   |   |   |   |   k_d8d1a <= 3.746298: Medio (45.93/0.29)
|   |   |   |   |   |   |   |   |   |   |   k_d8d1a > 3.746298
|   |   |   |   |   |   |   |   |   |   |   |   std_d7d2r <= 0.562448
|   |   |   |   |   |   |   |   |   |   |   |   |   m_d3d2a <= 0.059025: Alto (12.87)
|   |   |   |   |   |   |   |   |   |   |   |   |   m_d3d2a > 0.059025: Bajo (2.62/0.58)
|   |   |   |   |   |   |   |   |   |   |   |   std_d7d2r > 0.562448
|   |   |   |   |   |   |   |   |   |   |   |   |   k_d9a <= 5.309077: Medio (41.6/2.91)
|   |   |   |   |   |   |   |   |   |   |   |   |   k_d9a > 5.309077: Alto (6.32/1.45)
|   |   |   |   |   |   |   |   |   |   m_d6d2n > 0.003178: Alto (8.77/0.58)
|   |   |   |   |   |   |   |   |   m_d6r > 0.029602: Alto (14.54/0.58)
|   |   |   |   |   |   |   std_d7a > 0.218078
|   |   |   |   |   |   |   |   m_d5d2n <= 0.008206
|   |   |   |   |   |   |   |   |   std_d8a <= 0.190353
|   |   |   |   |   |   |   |   |   |   k_d10r <= 6.102277: Medio (23.06/1.16)
|   |   |   |   |   |   |   |   |   |   k_d10r > 6.102277: Alto (4.87)
|   |   |   |   |   |   |   |   |   std_d8a > 0.190353
|   |   |   |   |   |   |   |   |   |   k_d8d1a <= 7.457475
|   |   |   |   |   |   |   |   |   |   |   m_d10r <= -0.007654
|   |   |   |   |   |   |   |   |   |   |   |   k_d5a <= 2.741596: Bajo (5.86)
|   |   |   |   |   |   |   |   |   |   |   |   k_d5a > 2.741596
|   |   |   |   |   |   |   |   |   |   |   |   |   k_d8d1a <= 4.973092: Alto (2.33/0.58)
|   |   |   |   |   |   |   |   |   |   |   |   |   k_d8d1a > 4.973092: Medio (26.77/0.58)
|   |   |   |   |   |   |   |   |   |   |   m_d10r > -0.007654
|   |   |   |   |   |   |   |   |   |   |   |   m_d3d1n <= -0.001213
|   |   |   |   |   |   |   |   |   |   |   |   |   k_d8d1a <= 5.00972: Alto (8.0)
|   |   |   |   |   |   |   |   |   |   |   |   |   k_d8d1a > 5.00972
|   |   |   |   |   |   |   |   |   |   |   |   |   |   m_d4d2r <= -0.000872: Alto (3.13)
|   |   |   |   |   |   |   |   |   |   |   |   |   |   m_d4d2r > -0.000872: Medio (16.69/0.58)
|   |   |   |   |   |   |   |   |   |   |   |   m_d3d1n > -0.001213
|   |   |   |   |   |   |   |   |   |   |   |   |   k_d8d1a <= 2.964011
|   |   |   |   |   |   |   |   |   |   |   |   |   |   std_d4d2a <= 0.247074: Bajo (14.61/2.04)
|   |   |   |   |   |   |   |   |   |   |   |   |   |   std_d4d2a > 0.247074
|   |   |   |   |   |   |   |   |   |   |   |   |   |   |   k_d10r <= 4.071987: Bajo (4.87/0.29)
|   |   |   |   |   |   |   |   |   |   |   |   |   |   |   k_d10r > 4.071987: Alto (40.49/4.07)
|   |   |   |   |   |   |   |   |   |   |   |   |   k_d8d1a > 2.964011
|   |   |   |   |   |   |   |   |   |   |   |   |   |   m_d6d2n <= -0.015748
|   |   |   |   |   |   |   |   |   |   |   |   |   |   |   m_d2a <= 0.001301: Medio (5.57)
|   |   |   |   |   |   |   |   |   |   |   |   |   |   |   m_d2a > 0.001301: Bajo (24.9/0.29)
|   |   |   |   |   |   |   |   |   |   |   |   |   |   m_d6d2n > -0.015748
|   |   |   |   |   |   |   |   |   |   |   |   |   |   |   std_d6d2a <= 0.369516
|   |   |   |   |   |   |   |   |   |   |   |   |   |   |   |   m_d5d2n <= 0.000167
|   |   |   |   |   |   |   |   |   |   |   |   |   |   |   |   |   m_d3d1n <= -0.000681: Alto (13.37/0.58)
|   |   |   |   |   |   |   |   |   |   |   |   |   |   |   |   |   m_d3d1n > -0.000681
|   |   |   |   |   |   |   |   |   |   |   |   |   |   |   |   |   |   m_d3d2a <= 0.029532
|   |   |   |   |   |   |   |   |   |   |   |   |   |   |   |   |   |   |   k_d10r <= 5.209968: Alto (4.29)
|   |   |   |   |   |   |   |   |   |   |   |   |   |   |   |   |   |   |   k_d10r > 5.209968: Medio (3.2/0.87)
|   |   |   |   |   |   |   |   |   |   |   |   |   |   |   |   |   |   m_d3d2a > 0.029532
|   |   |   |   |   |   |   |   |   |   |   |   |   |   |   |   |   |   |   std_d7a <= 0.277411: Alto (3.42)
|   |   |   |   |   |   |   |   |   |   |   |   |   |   |   |   |   |   |   std_d7a > 0.277411: Bajo (22.61/2.33)
|   |   |   |   |   |   |   |   |   |   |   |   |   |   |   |   m_d5d2n > 0.000167: Alto (22.94/1.16)
|   |   |   |   |   |   |   |   |   |   |   |   |   |   |   std_d6d2a > 0.369516
|   |   |   |   |   |   |   |   |   |   |   |   |   |   |   |   k_d5n <= 1.928872
|   |   |   |   |   |   |   |   |   |   |   |   |   |   |   |   |   m_d2a <= 0.001805: Bajo (9.57)
|   |   |   |   |   |   |   |   |   |   |   |   |   |   |   |   |   m_d2a > 0.001805
|   |   |   |   |   |   |   |   |   |   |   |   |   |   |   |   |   |   k_d9a <= 7.081149: Alto (36.22/2.04)
|   |   |   |   |   |   |   |   |   |   |   |   |   |   |   |   |   |   k_d9a > 7.081149: Medio (8.99/0.58)
|   |   |   |   |   |   |   |   |   |   |   |   |   |   |   |   k_d5n > 1.928872
|   |   |   |   |   |   |   |   |   |   |   |   |   |   |   |   |   m_d3d1n <= 0.000425
|   |   |   |   |   |   |   |   |   |   |   |   |   |   |   |   |   |   m_d5d2n <= -0.004207
|   |   |   |   |   |   |   |   |   |   |   |   |   |   |   |   |   |   |   m_d5d2n <= -0.01379: Alto (8.12)
|   |   |   |   |   |   |   |   |   |   |   |   |   |   |   |   |   |   |   m_d5d2n > -0.01379
|   |   |   |   |   |   |   |   |   |   |   |   |   |   |   |   |   |   |   |   m_d3d2n <= 0.00031
|   |   |   |   |   |   |   |   |   |   |   |   |   |   |   |   |   |   |   |   |   k_d9a <= 7.737779
|   |   |   |   |   |   |   |   |   |   |   |   |   |   |   |   |   |   |   |   |   |   m_d9d1n <= 0.000795: Bajo (2.04/0.58)
|   |   |   |   |   |   |   |   |   |   |   |   |   |   |   |   |   |   |   |   |   |   m_d9d1n > 0.000795: Medio (53.28/5.53)
|   |   |   |   |   |   |   |   |   |   |   |   |   |   |   |   |   |   |   |   |   k_d9a > 7.737779: Bajo (4.36/1.45)
|   |   |   |   |   |   |   |   |   |   |   |   |   |   |   |   |   |   |   |   m_d3d2n > 0.00031
|   |   |   |   |   |   |   |   |   |   |   |   |   |   |   |   |   |   |   |   |   std_d3d1n <= 0.319018: Alto (7.78/2.04)
|   |   |   |   |   |   |   |   |   |   |   |   |   |   |   |   |   |   |   |   |   std_d3d1n > 0.319018: Medio (11.41/1.74)
|   |   |   |   |   |   |   |   |   |   |   |   |   |   |   |   |   |   m_d5d2n > -0.004207
|   |   |   |   |   |   |   |   |   |   |   |   |   |   |   |   |   |   |   m_d4d2r <= -0.000963
|   |   |   |   |   |   |   |   |   |   |   |   |   |   |   |   |   |   |   |   m_d9d1a <= 1.264029
|   |   |   |   |   |   |   |   |   |   |   |   |   |   |   |   |   |   |   |   |   m_d6d2n <= 0.002034: Medio (37.29/2.91)
|   |   |   |   |   |   |   |   |   |   |   |   |   |   |   |   |   |   |   |   |   m_d6d2n > 0.002034: Alto (6.03/0.87)
|   |   |   |   |   |   |   |   |   |   |   |   |   |   |   |   |   |   |   |   m_d9d1a > 1.264029: Bajo (6.25/0.29)
|   |   |   |   |   |   |   |   |   |   |   |   |   |   |   |   |   |   |   m_d4d2r > -0.000963
|   |   |   |   |   |   |   |   |   |   |   |   |   |   |   |   |   |   |   |   v_d2n <= 0.039325
|   |   |   |   |   |   |   |   |   |   |   |   |   |   |   |   |   |   |   |   |   k_d9a <= 6.563253
|   |   |   |   |   |   |   |   |   |   |   |   |   |   |   |   |   |   |   |   |   |   k_d1d2r <= 21.251333
|   |   |   |   |   |   |   |   |   |   |   |   |   |   |   |   |   |   |   |   |   |   |   k_d5a <= 1.787933: Alto (9.86/0.58)
|   |   |   |   |   |   |   |   |   |   |   |   |   |   |   |   |   |   |   |   |   |   |   k_d5a > 1.787933
|   |   |   |   |   |   |   |   |   |   |   |   |   |   |   |   |   |   |   |   |   |   |   |   k_d2d1a <= 23.058853
|   |   |   |   |   |   |   |   |   |   |   |   |   |   |   |   |   |   |   |   |   |   |   |   |   m_d1n <= 0.000084
|   |   |   |   |   |   |   |   |   |   |   |   |   |   |   |   |   |   |   |   |   |   |   |   |   |   m_d3d2a <= 0.048863: Medio (2.04/0.29)
|   |   |   |   |   |   |   |   |   |   |   |   |   |   |   |   |   |   |   |   |   |   |   |   |   |   m_d3d2a > 0.048863: Alto (16.11/0.58)
|   |   |   |   |   |   |   |   |   |   |   |   |   |   |   |   |   |   |   |   |   |   |   |   |   m_d1n > 0.000084: Medio (5.28)
|   |   |   |   |   |   |   |   |   |   |   |   |   |   |   |   |   |   |   |   |   |   |   |   k_d2d1a > 23.058853
|   |   |   |   |   |   |   |   |   |   |   |   |   |   |   |   |   |   |   |   |   |   |   |   |   m_d9d1n <= 0.002211: Medio (49.18/2.04)
|   |   |   |   |   |   |   |   |   |   |   |   |   |   |   |   |   |   |   |   |   |   |   |   |   m_d9d1n > 0.002211: Alto (4.0/0.58)
|   |   |   |   |   |   |   |   |   |   |   |   |   |   |   |   |   |   |   |   |   |   k_d1d2r > 21.251333
|   |   |   |   |   |   |   |   |   |   |   |   |   |   |   |   |   |   |   |   |   |   |   m_d3d1n <= -0.000622
|   |   |   |   |   |   |   |   |   |   |   |   |   |   |   |   |   |   |   |   |   |   |   |   std_d7d2r <= 1.907492
|   |   |   |   |   |   |   |   |   |   |   |   |   |   |   |   |   |   |   |   |   |   |   |   |   m_d4d2r <= -0.000526: Alto (4.58/0.58)
|   |   |   |   |   |   |   |   |   |   |   |   |   |   |   |   |   |   |   |   |   |   |   |   |   m_d4d2r > -0.000526
|   |   |   |   |   |   |   |   |   |   |   |   |   |   |   |   |   |   |   |   |   |   |   |   |   |   m_d9d1a <= 1.16023: Bajo (41.55/1.16)
|   |   |   |   |   |   |   |   |   |   |   |   |   |   |   |   |   |   |   |   |   |   |   |   |   |   m_d9d1a > 1.16023: Medio (2.04/1.16)
|   |   |   |   |   |   |   |   |   |   |   |   |   |   |   |   |   |   |   |   |   |   |   |   std_d7d2r > 1.907492: Alto (9.67)
|   |   |   |   |   |   |   |   |   |   |   |   |   |   |   |   |   |   |   |   |   |   |   m_d3d1n > -0.000622
|   |   |   |   |   |   |   |   |   |   |   |   |   |   |   |   |   |   |   |   |   |   |   |   v_d2n <= 0.029392
|   |   |   |   |   |   |   |   |   |   |   |   |   |   |   |   |   |   |   |   |   |   |   |   |   m_d3d2n <= -0.000397: Medio (18.27/1.45)
|   |   |   |   |   |   |   |   |   |   |   |   |   |   |   |   |   |   |   |   |   |   |   |   |   m_d3d2n > -0.000397
|   |   |   |   |   |   |   |   |   |   |   |   |   |   |   |   |   |   |   |   |   |   |   |   |   |   std_d7d2r <= 0.66181
|   |   |   |   |   |   |   |   |   |   |   |   |   |   |   |   |   |   |   |   |   |   |   |   |   |   |   k_d10r <= 4.524466: Alto (8.79)
|   |   |   |   |   |   |   |   |   |   |   |   |   |   |   |   |   |   |   |   |   |   |   |   |   |   |   k_d10r > 4.524466: Bajo (23.91/0.58)
|   |   |   |   |   |   |   |   |   |   |   |   |   |   |   |   |   |   |   |   |   |   |   |   |   |   std_d7d2r > 0.66181
|   |   |   |   |   |   |   |   |   |   |   |   |   |   |   |   |   |   |   |   |   |   |   |   |   |   |   std_d2r <= 0.006925
|   |   |   |   |   |   |   |   |   |   |   |   |   |   |   |   |   |   |   |   |   |   |   |   |   |   |   |   m_d6d2n <= 0.006517
|   |   |   |   |   |   |   |   |   |   |   |   |   |   |   |   |   |   |   |   |   |   |   |   |   |   |   |   |   m_d3d1n <= 0.000205
|   |   |   |   |   |   |   |   |   |   |   |   |   |   |   |   |   |   |   |   |   |   |   |   |   |   |   |   |   |   v_d6n <= 0.069831
|   |   |   |   |   |   |   |   |   |   |   |   |   |   |   |   |   |   |   |   |   |   |   |   |   |   |   |   |   |   |   m_d3d1n <= -0.000117
|   |   |   |   |   |   |   |   |   |   |   |   |   |   |   |   |   |   |   |   |   |   |   |   |   |   |   |   |   |   |   |   std_d6d2a <= 0.462206: Alto (3.42)
|   |   |   |   |   |   |   |   |   |   |   |   |   |   |   |   |   |   |   |   |   |   |   |   |   |   |   |   |   |   |   |   std_d6d2a > 0.462206: Medio (20.81/0.87)
|   |   |   |   |   |   |   |   |   |   |   |   |   |   |   |   |   |   |   |   |   |   |   |   |   |   |   |   |   |   |   m_d3d1n > -0.000117: Alto (7.9/0.29)
|   |   |   |   |   |   |   |   |   |   |   |   |   |   |   |   |   |   |   |   |   |   |   |   |   |   |   |   |   |   v_d6n > 0.069831
|   |   |   |   |   |   |   |   |   |   |   |   |   |   |   |   |   |   |   |   |   |   |   |   |   |   |   |   |   |   |   m_d3d2n <= -0.000334: Alto (8.7/0.58)
|   |   |   |   |   |   |   |   |   |   |   |   |   |   |   |   |   |   |   |   |   |   |   |   |   |   |   |   |   |   |   m_d3d2n > -0.000334
|   |   |   |   |   |   |   |   |   |   |   |   |   |   |   |   |   |   |   |   |   |   |   |   |   |   |   |   |   |   |   |   m_d9d1a <= 0.337608
|   |   |   |   |   |   |   |   |   |   |   |   |   |   |   |   |   |   |   |   |   |   |   |   |   |   |   |   |   |   |   |   |   k_d2d1a <= 94.261765: Alto (8.79)
|   |   |   |   |   |   |   |   |   |   |   |   |   |   |   |   |   |   |   |   |   |   |   |   |   |   |   |   |   |   |   |   |   k_d2d1a > 94.261765: Medio (2.83)
|   |   |   |   |   |   |   |   |   |   |   |   |   |   |   |   |   |   |   |   |   |   |   |   |   |   |   |   |   |   |   |   m_d9d1a > 0.337608
|   |   |   |   |   |   |   |   |   |   |   |   |   |   |   |   |   |   |   |   |   |   |   |   |   |   |   |   |   |   |   |   |   m_d4d2r <= -0.000658
|   |   |   |   |   |   |   |   |   |   |   |   |   |   |   |   |   |   |   |   |   |   |   |   |   |   |   |   |   |   |   |   |   |   m_d2a <= 0.001776: Medio (12.94/1.45)
|   |   |   |   |   |   |   |   |   |   |   |   |   |   |   |   |   |   |   |   |   |   |   |   |   |   |   |   |   |   |   |   |   |   m_d2a > 0.001776: Alto (2.04/0.29)
|   |   |   |   |   |   |   |   |   |   |   |   |   |   |   |   |   |   |   |   |   |   |   |   |   |   |   |   |   |   |   |   |   m_d4d2r > -0.000658
|   |   |   |   |   |   |   |   |   |   |   |   |   |   |   |   |   |   |   |   |   |   |   |   |   |   |   |   |   |   |   |   |   |   m_d5d2n <= 0.003193
|   |   |   |   |   |   |   |   |   |   |   |   |   |   |   |   |   |   |   |   |   |   |   |   |   |   |   |   |   |   |   |   |   |   |   std_d3d1n <= 0.133916: Medio (11.02/1.16)
|   |   |   |   |   |   |   |   |   |   |   |   |   |   |   |   |   |   |   |   |   |   |   |   |   |   |   |   |   |   |   |   |   |   |   std_d3d1n > 0.133916
|   |   |   |   |   |   |   |   |   |   |   |   |   |   |   |   |   |   |   |   |   |   |   |   |   |   |   |   |   |   |   |   |   |   |   |   m_d9d1a <= 0.982937
|   |   |   |   |   |   |   |   |   |   |   |   |   |   |   |   |   |   |   |   |   |   |   |   |   |   |   |   |   |   |   |   |   |   |   |   |   m_d6d2n <= -0.006179
|   |   |   |   |   |   |   |   |   |   |   |   |   |   |   |   |   |   |   |   |   |   |   |   |   |   |   |   |   |   |   |   |   |   |   |   |   |   m_d2a <= 0.00096: Medio (4.29)
|   |   |   |   |   |   |   |   |   |   |   |   |   |   |   |   |   |   |   |   |   |   |   |   |   |   |   |   |   |   |   |   |   |   |   |   |   |   m_d2a > 0.00096: Alto (4.87/0.87)
|   |   |   |   |   |   |   |   |   |   |   |   |   |   |   |   |   |   |   |   |   |   |   |   |   |   |   |   |   |   |   |   |   |   |   |   |   m_d6d2n > -0.006179
|   |   |   |   |   |   |   |   |   |   |   |   |   |   |   |   |   |   |   |   |   |   |   |   |   |   |   |   |   |   |   |   |   |   |   |   |   |   m_d4d2r <= -0.000057
|   |   |   |   |   |   |   |   |   |   |   |   |   |   |   |   |   |   |   |   |   |   |   |   |   |   |   |   |   |   |   |   |   |   |   |   |   |   |   std_d7a <= 0.350069
|   |   |   |   |   |   |   |   |   |   |   |   |   |   |   |   |   |   |   |   |   |   |   |   |   |   |   |   |   |   |   |   |   |   |   |   |   |   |   |   std_d8a <= 0.294241: Bajo (2.91/0.58)
|   |   |   |   |   |   |   |   |   |   |   |   |   |   |   |   |   |   |   |   |   |   |   |   |   |   |   |   |   |   |   |   |   |   |   |   |   |   |   |   std_d8a > 0.294241
|   |   |   |   |   |   |   |   |   |   |   |   |   |   |   |   |   |   |   |   |   |   |   |   |   |   |   |   |   |   |   |   |   |   |   |   |   |   |   |   |   std_d6d2a <= 0.651254: Bajo (3.78/1.16)
|   |   |   |   |   |   |   |   |   |   |   |   |   |   |   |   |   |   |   |   |   |   |   |   |   |   |   |   |   |   |   |   |   |   |   |   |   |   |   |   |   std_d6d2a > 0.651254: Medio (29.27/2.62)
|   |   |   |   |   |   |   |   |   |   |   |   |   |   |   |   |   |   |   |   |   |   |   |   |   |   |   |   |   |   |   |   |   |   |   |   |   |   |   std_d7a > 0.350069
|   |   |   |   |   |   |   |   |   |   |   |   |   |   |   |   |   |   |   |   |   |   |   |   |   |   |   |   |   |   |   |   |   |   |   |   |   |   |   |   m_d1n <= -0.000043: Medio (2.83)
|   |   |   |   |   |   |   |   |   |   |   |   |   |   |   |   |   |   |   |   |   |   |   |   |   |   |   |   |   |   |   |   |   |   |   |   |   |   |   |   m_d1n > -0.000043
|   |   |   |   |   |   |   |   |   |   |   |   |   |   |   |   |   |   |   |   |   |   |   |   |   |   |   |   |   |   |   |   |   |   |   |   |   |   |   |   |   m_d10r <= -0.006217: Medio (3.71)
|   |   |   |   |   |   |   |   |   |   |   |   |   |   |   |   |   |   |   |   |   |   |   |   |   |   |   |   |   |   |   |   |   |   |   |   |   |   |   |   |   m_d10r > -0.006217: Bajo (39.54/3.78)
